entity0 0.09554246 -0.05253684 0.02812364 0.12049284 0.040712327 0.049075376 0.071503 0.25095898 -0.04203824 0.0004391356 -0.22085494 0.014255198 0.080182165 0.15628992 -0.16712719 0.15993598 -0.053526413 0.011807409 0.022500671 -0.14309405 -0.01118068 0.07035261 -0.014560407 -0.022543376 -0.13762549 0.044881612 0.072279885 0.2029414 0.0354311 0.26563734 -0.1431979 -0.2568064 0.028362941 0.00510774 -0.07501159 -0.006396532 0.027225966 0.031023808 -0.085298695 0.29799792 0.072478995 0.041624155 0.1226157 0.183041 -0.049234297 -0.016548252 0.26980793 -0.14824872 0.16788466 0.020031087
will 0.6493221 -0.076704755 0.014218246 0.3164964 0.07626048 0.27047446 0.40472347 0.24449903 -0.4802085 -0.32520723 -0.34528223 0.20491682 0.04540882 0.30195224 -0.06932976 0.22264941 0.1045601 0.07081585 0.22000438 -0.66345465 -0.10613781 -0.056153934 0.2802462 -0.13239983 -0.06847865 0.1702125 -0.0432283 0.26381648 0.16280377 0.68665624 -0.45979777 -0.5631366 0.31820711 -0.19975507 0.27220201 -0.1330722 0.35420913 0.12617761 -0.42858392 0.6306696 0.20018372 0.66229093 0.3622101 0.10590915 -0.3668181 -0.16063486 0.59040195 -0.35301468 0.948086 -0.13378158
be 0.5349529 -0.24380966 0.45414448 -0.18177149 0.03348037 -0.44873634 0.37120876 0.87420005 -0.36014774 -0.8532338 -0.91357553 -0.06779385 0.4176348 0.8411949 -0.28751394 0.34110987 0.111981235 -0.22198434 0.48192674 0.019298013 -0.8089366 -0.19461738 -0.37021893 -0.43030953 -0.41629732 0.22152416 -0.34075174 -0.5505794 0.015284115 0.9585714 -0.9115576 -0.7506473 0.35862845 -0.17399703 -0.5804828 0.35328475 -0.004915193 0.41411358 -0.09869126 0.6702195 0.20208937 -0.2498447 0.26479656 0.19612686 -0.020028802 -0.36321598 0.4027429 0.42770964 0.49559304 0.18978904
the 0.38800126 -0.34186202 -0.19868976 0.37560943 -0.37479934 -0.15641676 0.53742015 0.296851 -0.021707693 -0.30512923 -0.73242927 0.06926316 0.14825292 -0.033437256 -0.41081986 0.2322359 -0.09064845 -0.1517509 0.019319294 -0.25337964 -0.24224335 0.21779883 -0.27445453 -0.2811669 -0.33942026 0.18919615 0.0029094424 0.6153302 -0.10082526 0.36660802 -0.5058745 -0.4641957 0.057994727 -0.044219114 -0.5765838 -0.3415186 -0.20368199 0.19402982 -0.4779388 0.41259053 0.30207175 0.07738657 0.2464977 0.123083465 -0.1754753 0.030132456 0.48951805 -0.45606554 0.22972089 -0.2618031
level 0.2226642 -0.3293893 -0.04866227 0.16565838 -0.017021399 0.09048246 -0.050431885 0.44009885 -0.10399354 0.030504376 -0.41378042 -0.03588582 0.35109755 0.2269975 -0.37125573 0.14159152 -0.07536097 0.012373563 0.020809652 -0.35767633 0.0993426 0.16065606 -0.20233022 -0.014571827 -0.28403974 0.046664696 0.49369702 0.6114792 0.27880815 0.54891425 -0.14433229 -0.41690055 -0.013942173 0.13601653 -0.1964686 -0.028483396 0.1553566 0.007313826 -0.100848526 0.58162606 0.16759823 0.01747191 0.2544511 0.27178922 0.024796018 -0.017550979 0.5044205 -0.2530796 0.24682441 0.048318196
of 0.14457068 -0.31716615 0.060209334 0.5431771 -0.37904844 0.001383081 0.29880166 0.5362421 0.43807247 -0.1806434 -0.52861047 0.40481174 0.26727447 -0.21542718 -0.6327471 0.25838548 0.007711349 0.036197815 -0.05472718 -0.39675575 0.20648313 0.40114334 -0.49947134 -0.15567648 -0.6455917 0.32848242 -0.19245076 0.5186602 0.41110212 0.62341595 -0.15483803 -0.3539368 0.3455682 0.22477326 -0.31577325 -0.016094746 0.09866518 -0.1841357 -0.21107538 0.34983322 0.12707977 -0.012632179 0.2203752 -0.21624093 0.06671223 -0.2815448 0.5412862 -0.33275625 0.43628502 0.18393926
entity1 0.15683086 -0.10107355 0.0479581 0.17699711 0.04082249 0.076568455 0.07550392 0.41450754 -0.14425634 -0.029637069 -0.4101691 -0.03302474 0.2033587 0.25741607 -0.3238248 0.34045506 -0.13727328 0.0570407 0.030591253 -0.28299847 -0.051171236 0.11179163 -0.054481104 -0.003143825 -0.25534734 0.08350389 0.17761062 0.3657183 0.06132995 0.5121031 -0.29798838 -0.43715873 0.03716912 0.030412618 -0.15766196 0.026289135 0.058079645 0.071849614 -0.1774581 0.5284501 0.102959655 0.113074936 0.22641364 0.399053 -0.11774494 -0.069845155 0.5547811 -0.27653757 0.3586118 0.033781167
, 0.004962334 0.042980034 0.48401353 -0.26700732 -0.042943753 0.1323069 0.15505412 0.3769667 -0.049049422 0.1565995 -0.5915817 -0.2553751 0.3409551 0.29271454 -0.12544762 0.56882924 -0.36404487 0.03463293 0.3448188 -0.5191616 0.032507434 0.041859206 0.01235645 -0.012672926 -0.18220775 0.005925719 0.07849817 0.2931222 0.46825325 0.4879269 -0.49875942 -0.41656187 0.5119884 0.43012238 -0.06875324 -0.36327323 -0.011541808 -0.02755707 -0.27341062 0.24278297 0.06624984 0.09378627 0.024913026 0.122495316 -0.025683166 -0.05352769 0.97487783 -0.29949036 0.3797491 -0.02171991
following -0.016833086 0.12613392 -0.034508012 0.62514526 0.17558572 0.18679179 0.17697054 0.46693474 0.076018184 -0.12300761 -0.12906864 0.25213897 -0.17000389 0.21244366 -0.41855973 0.49493113 -0.18983395 0.19769606 -0.077560164 -0.15200873 -0.13657527 -0.05931627 0.42735 -0.5268194 -0.3319061 -0.09728524 0.25514117 0.5591756 0.08202481 0.84383106 -0.32819825 -0.44733256 -0.085635915 -0.09738282 -0.20268293 0.030822879 0.42542943 0.15695167 -0.13638505 0.36590192 0.35453242 0.5353731 0.36240312 0.81820047 -0.037467822 0.3181355 0.54450005 -0.18410107 0.4155362 -0.11800092
entity2 0.08490812 -0.05507535 0.043774985 0.14469053 0.047219113 0.07253128 0.06940397 0.32173845 -0.038167775 0.009690275 -0.278411 0.009740812 0.10690909 0.18754657 -0.21601416 0.22504191 -0.09909817 0.015027681 0.004548255 -0.17896481 -0.02005885 0.071581475 -0.0156629 -0.04346778 -0.18279499 0.05323598 0.11534339 0.2644823 0.051250827 0.34769368 -0.17822176 -0.3088443 0.005598743 0.02942583 -0.11649893 -0.0018225228 0.048821624 0.035767723 -0.099187456 0.34767425 0.08605122 0.07095856 0.1555508 0.26981637 -0.045969453 -0.010654074 0.35863012 -0.17871094 0.22935148 0.023850778
entity3 0.077358164 -0.059951685 0.021792416 0.16163789 0.037253127 0.06682868 0.060027126 0.29867166 -0.03138906 -0.0035873952 -0.25838894 0.003130775 0.092753805 0.17917109 -0.21720119 0.23383857 -0.09653391 0.0325497 0.0057071275 -0.17299823 -0.017470105 0.07122183 0.009778511 -0.06270739 -0.16777821 0.041297268 0.12923773 0.2591215 0.059142787 0.36440188 -0.17354594 -0.30758104 0.0031640516 0.019843996 -0.11012699 -0.0057553495 0.050533682 0.029520376 -0.100698955 0.33834803 0.10161648 0.095393576 0.15443823 0.28301504 -0.03029086 -0.016941763 0.3548207 -0.18516071 0.2269584 0.024666036
entity4 0.056810774 -0.053365085 0.036847744 0.13649045 0.03222299 0.06649597 0.06329498 0.28628793 -0.028424496 0.010638122 -0.23386922 9.256278e-05 0.0988328 0.14251558 -0.1972252 0.2279505 -0.098209396 0.045365702 0.018270161 -0.16189517 -0.0066081146 0.06171878 0.0027124202 -0.038689192 -0.15957478 0.03315469 0.11385124 0.22212553 0.03786029 0.32736176 -0.16014083 -0.26138362 0.008016457 0.03577094 -0.090628155 -0.01215745 0.05027788 0.033034198 -0.08928553 0.3053707 0.08921656 0.07367995 0.13418318 0.2587558 -0.029304221 -0.015447121 0.329095 -0.17440017 0.19237177 0.026593352
entity5 0.06847364 -0.037938047 0.017483305 0.12339336 0.03173253 0.048752617 0.054942917 0.27723637 -0.03140836 -0.0030259928 -0.24506216 -0.017551064 0.09312631 0.13460378 -0.1824347 0.20700873 -0.09216196 0.020719718 0.01972271 -0.16313931 -0.025399797 0.08598324 -0.014248598 -0.033174526 -0.1535104 0.053274773 0.109789275 0.20670485 0.042710643 0.2838017 -0.17689832 -0.23954514 0.0198308 0.022331744 -0.09283 -0.01022303 0.03508046 0.010012404 -0.09812861 0.30019212 0.07896471 0.05752247 0.12171427 0.24668187 -0.032707028 -0.01115 0.3163347 -0.16896968 0.17003158 0.023877429
and 0.22249974 -0.112344965 0.17162263 0.066900425 0.21066047 0.2709004 0.41866708 0.62462157 -0.030743983 0.32288805 -0.63878715 -0.0009717308 0.2860858 -0.06198544 -0.20297731 0.42352194 -0.10592239 -0.103653714 0.07118308 -0.12306606 0.25454807 0.17883414 -0.48684016 0.35605496 -0.5836253 0.15552759 0.38106543 0.45570347 0.14229159 0.5791787 -0.5044666 -0.5104756 0.4638929 0.17888044 -0.24638322 -0.11799037 -0.0033873366 -0.11302018 -0.10309838 0.1921529 0.13460462 0.034265388 -0.12365417 0.027769173 0.057358574 -0.16833477 0.36146995 -0.4998896 0.5420166 0.2804291
entity6 0.08457901 -0.05300412 0.02673087 0.100298025 0.0285176 0.039654244 0.052399933 0.22674921 -0.031302195 0.0078899525 -0.21349555 -0.011660023 0.09199872 0.12765303 -0.17742774 0.16918401 -0.07101455 0.018328553 0.02514727 -0.16551436 0.0037697682 0.083795026 -0.03163003 -0.0115721105 -0.14645685 0.0646128 0.09583497 0.18817961 0.049138546 0.2440059 -0.1378438 -0.2430321 0.013046529 0.036422916 -0.087469876 0.007102399 0.033409875 0.020742424 -0.0746379 0.2583614 0.059631992 0.033382524 0.117390595 0.17847049 -0.039483953 -0.025103549 0.28299165 -0.14847955 0.17684837 0.023207529
. 0.0109072365 -0.14957415 0.23761398 0.05739918 0.25104064 -0.045833383 0.16913348 0.54803777 0.38568842 0.37504268 -0.93429196 0.08141085 0.43288958 0.17687103 -0.5820114 0.46540922 0.012104956 -0.11979177 -0.016139492 -0.14291434 0.29225785 0.19922495 -0.14204243 0.114364535 -0.39505225 0.52617973 -0.04995371 0.4095246 0.2561566 0.47793052 -0.14531663 -0.42480174 0.28872746 -0.012398984 0.13058953 -0.18692479 0.11373417 -0.14989735 -0.16821246 0.54622567 0.3954644 -0.13859908 0.27016747 -0.06648622 -0.24702543 0.058706112 0.47522655 -0.40288496 0.03287972 -0.05478391
[ -0.03142392 -0.11272453 0.31717747 0.15372853 -0.021320943 -0.0534378 0.015971482 0.43866736 0.020752821 0.17480335 -0.5053932 0.16983642 0.20182182 0.33426446 -0.5635811 0.39015722 -0.06470852 0.029884653 -0.16546904 -0.16885465 0.15463036 0.08933653 -0.017596763 -0.026494158 -0.4450235 0.28547284 0.08043757 0.3942591 -0.13273071 0.5426033 -0.08909654 -0.3472805 -0.12179684 0.042919677 -0.11404957 0.19772321 -0.10826637 0.16012153 -0.048083328 0.5762984 0.35449094 0.10091466 0.34728366 0.43657202 -0.024914041 0.08949103 0.5518985 -0.35600612 0.13370304 0.14310096
c++ 0.26063746 -0.09229067 0.1882795 0.20184821 -0.009567331 -0.06160646 -0.008200008 0.3553267 -0.13086848 0.054521937 -0.48851714 -0.06586359 0.3283707 0.30485737 -0.47224885 0.28877354 -0.15822114 0.067785665 0.024524923 -0.22861458 0.007296986 0.04669002 -0.21514767 0.10836231 -0.34840584 0.3097604 -0.017123444 0.36880547 -0.039779697 0.44257048 -0.14259154 -0.51589257 0.10800643 0.08672005 -0.25930035 0.12185264 -0.010899669 0.14264263 -0.18286355 0.55669284 0.054833356 -0.005633662 0.17250107 0.1999396 -0.2322231 -0.11398149 0.6643515 -0.24420428 0.43270162 0.07159677
] 0.006520275 -0.11512365 0.30379683 0.15465045 0.06414531 -0.033055514 -0.12725776 0.49548817 -0.088583685 0.12589931 -0.48837113 0.023621097 0.1639176 0.3515393 -0.53245455 0.45917332 -0.15146473 0.06274292 -0.097985074 -0.1338878 0.049108252 0.16131394 -0.102876306 0.030149072 -0.3684219 0.34601417 -0.067970745 0.41892922 -0.17195882 0.54953575 -0.17371437 -0.35384127 -0.12599699 0.05751312 -0.039272163 0.17491353 -0.10319632 0.08232289 0.057148922 0.6971086 0.12853736 0.007606615 0.18544672 0.5559508 -0.14430256 -0.11772256 0.58722216 -0.34881124 0.043297015 0.15940127
: -0.058203567 0.22442293 0.41343498 0.026621856 0.08814553 -0.1967062 0.011557403 0.47353917 0.3331633 0.43302953 -0.6747113 -0.055120844 0.63522357 -0.0016591263 -0.52890867 0.3008978 -0.10637292 0.13331084 -0.43077853 -0.45106712 0.7402651 -0.10135597 0.04170836 0.12842387 -0.73151547 0.6152842 0.23508707 0.43351698 0.20642346 0.434825 -0.11979953 -0.0004453762 0.21604824 0.22372024 -0.1988157 -0.017290758 0.4323713 -0.13892415 -0.29168683 0.29368144 0.61714053 0.2545425 0.27927423 0.29552728 -0.25303087 0.44457075 0.82967347 -0.2864049 0.37648246 -0.24492308
with 0.7132208 -0.0034481876 0.30694932 0.1032506 0.1430909 0.12613092 0.24749619 0.36762103 0.18012598 0.12770036 -0.40519017 0.2934565 0.24589506 0.33780882 -0.7357852 0.11820161 -0.22595221 -0.2833857 0.38491157 -0.35461715 -0.109610446 0.21868432 -0.19398104 0.023436144 -0.35453033 0.22795078 -0.025888236 0.5407113 -0.049379542 0.7417218 -0.14092436 -0.6210517 0.24855559 0.10246451 -0.06274164 -0.22646165 0.2591829 0.109193034 -0.15684268 0.44402808 0.30196223 0.07875708 0.17531121 0.034506895 0.056891106 -0.38186878 0.34598693 -0.03339766 0.27409065 0.17876583
an 0.09694623 -0.53610224 0.35787085 0.22354124 -0.11981063 -0.3179417 0.5070853 0.065684676 0.14596501 0.25779772 -0.8128798 -0.1260282 0.2883723 -0.12715113 -0.21061751 0.19131881 0.061327055 0.1232276 0.26419103 -0.3993213 -0.00809681 0.05098505 -0.08748442 -0.06993573 -0.15447064 0.42536053 0.0046089655 0.27808017 -0.12169044 0.5184047 -0.16186428 -0.5093351 0.04783576 -0.10649368 -0.6861266 -0.40264398 -0.6059472 0.401582 -0.5052558 0.25568902 0.6682902 -0.17857529 0.28213385 0.23566169 -0.57314366 0.046312965 0.7045573 -0.7585937 0.68261075 -0.499218
object 0.3375371 -0.022399116 0.3984301 0.61601675 -0.13861972 -0.021425493 -0.04205464 0.22100785 -0.1298198 0.46186534 -0.6811497 -0.25896534 0.76396406 0.4641974 -0.72647005 0.35012627 -0.41187015 -0.30368277 -0.008247991 -0.6857535 -0.36851078 0.45364878 -0.49947968 0.61782 -0.21782587 0.5677213 -0.38001195 0.47127488 0.058458954 -0.11496252 0.085891314 -0.8887568 -0.056936134 0.23103814 -0.31015092 0.023360183 -0.6115019 0.34384406 -0.20382312 0.90152234 -0.50074226 -0.3690225 -0.11689617 -0.072530985 -0.20945966 -0.11020099 0.83181953 -0.7534695 0.4817922 0.34732166
query 0.409156 -0.27308655 0.06939738 0.06176584 0.052886643 -0.0014982638 0.096556254 0.30665752 -0.27910894 -0.052407708 -0.637836 -0.072241046 0.45740828 0.17687339 -0.4719969 0.18382674 0.08804547 -0.006027526 0.074742995 -0.40646937 0.07107027 0.10264149 -0.38544342 0.18736927 -0.38393152 0.39014044 0.079746 0.3021618 0.05826961 0.50764805 -0.1617263 -0.53779984 0.1500299 0.11216265 -0.16487195 0.035464026 0.0054698363 0.12939884 -0.16866624 0.6394299 0.15252528 0.031158617 0.18909155 0.081113614 -0.21026851 -0.26376283 0.5674457 -0.22747335 0.4292541 0.15360977
capability 0.20802693 -0.14460447 0.08589879 0.1831543 0.019300554 0.056427233 0.14832346 0.42868114 -0.08506006 0.0038738255 -0.44732094 0.009934974 0.21835369 0.272682 -0.3629684 0.25636557 -0.08634166 0.04522531 0.072379984 -0.3246029 0.02873035 0.18859002 -0.13792346 0.019658366 -0.29809177 0.14568713 0.20170394 0.39395204 0.11237487 0.48953116 -0.2659494 -0.4900415 0.0567768 0.05604663 -0.19861713 0.0015407698 0.01957905 0.11097885 -0.1707895 0.5533893 0.13923487 0.08189353 0.23905608 0.2713588 -0.065013945 -0.0754665 0.53449637 -0.29211324 0.33334744 0.057736974
transaction 0.2978472 -0.21500705 0.19008927 0.040387873 0.03743824 -0.07442698 0.060769852 0.5375896 -0.110538624 0.23851429 -0.6855964 -0.042088255 0.3128476 0.2981134 -0.4475659 0.122319765 0.018327286 -0.059149526 -0.0057088034 -0.3804182 0.18368185 0.25642774 -0.3179927 0.2791014 -0.44453135 0.33927414 0.11237246 0.43617645 0.13612266 0.34586188 -0.18076359 -0.62818587 0.12932862 0.10445213 -0.22413474 0.0094517 -0.048632573 0.022793418 -0.18598196 0.5173911 0.15822679 -0.15754376 0.15128767 -0.04032161 -0.13987279 -0.08332287 0.48509338 -0.3231352 0.4163033 0.1284559
entity7 0.15513243 -0.3300732 0.39310673 0.05001185 0.30372608 -0.15185611 -0.21400116 0.4543844 -0.0015803344 0.6657589 -1.0733063 -0.16592652 0.5220281 0.22687536 -0.6496026 0.027314562 0.05466643 0.15473153 -0.25660628 -0.2972264 0.6566571 0.03725032 -0.2022056 0.5516979 -0.5613948 0.71818393 0.2580903 0.5844857 0.1640417 0.56982607 -0.04315017 -0.5315998 -0.077968955 0.46771795 0.10555793 0.038141236 0.24442273 -0.075546615 -0.24754794 0.5185232 0.5235656 -0.27591476 0.27478468 0.012940944 -0.31470442 0.14421591 0.38825667 -0.3749788 0.5099366 0.18188368
in 0.2570313 0.25199544 0.46894413 -0.106228516 0.12754497 0.034798756 0.3126653 0.61741126 -0.15904929 0.11462104 -0.46662673 -0.09046261 -0.023291875 0.049395204 -0.47446135 0.008440477 0.082406566 0.115130424 -0.12532777 -0.4599517 0.31151265 0.27402446 -0.46801654 -0.041143455 -0.50235164 0.29199043 0.116990305 0.607697 0.22401986 0.5740088 -0.69098604 -0.4314736 0.370656 0.12207645 -0.002471502 -0.088800386 0.2640326 -0.09028429 -0.3843359 0.34998882 0.43627197 0.30381015 -0.20310281 -0.035579104 -0.081307255 0.18660644 0.70288897 0.016933717 0.2862138 -0.21714804
systems 0.4150734 -0.5558914 0.19939874 0.21120575 0.10783486 -0.072169274 -0.05724646 0.50994307 -0.26198435 0.536693 -0.961956 -0.48368618 0.8293111 0.7216556 0.04462267 -0.023934375 -0.41436908 0.11661044 -0.13686152 -0.36210048 0.8235681 0.1264099 0.49528491 0.20662445 -0.15886919 0.6229942 0.40753788 0.5839168 0.4289288 0.83258015 -0.9569993 -0.8428574 -0.17947301 0.8074736 0.18149012 -0.31831366 0.037587013 0.27974883 0.15917507 0.2704091 0.06154539 -0.3435852 -0.020967236 -0.04589763 -0.4545883 -0.34288186 -0.21860087 -0.7255646 0.4782325 -0.057486746
overview 0.41999862 -0.22013927 0.16047724 0.36993736 -0.16672868 -0.055635124 0.102453575 0.05206987 -0.23467682 0.032520242 -0.39741737 0.03580946 0.50346756 0.044887446 -0.28792307 -0.088136755 0.05355842 0.26069587 0.099510275 -0.7819557 0.19321293 0.27408305 -0.3237888 0.22679071 -0.64208907 0.516568 0.28003713 0.63464373 0.42317083 0.5577936 -0.28525648 -0.52427524 -0.0222936 0.07315451 -0.24598919 0.10374832 0.062864445 0.24056557 -0.26238698 0.24420144 0.35021043 0.15329544 0.4092004 -0.11139828 -0.23939922 0.109563194 0.50938475 -0.39896858 1.04732 -0.13079047
system 0.36501148 -0.5076902 0.14271915 0.12702878 0.032851476 -0.47362626 0.09316007 0.21434191 -0.20287587 0.038077824 -0.6721109 0.040945165 0.617931 0.53857553 -0.58925253 0.02219733 0.08596437 -0.07497011 0.15809554 -0.075163744 0.3472177 0.04348816 -0.40795797 0.31087822 -0.5174286 0.45092657 0.40702525 0.6939195 0.3261733 0.5597677 -0.31203657 -0.6003721 0.10415425 0.12639493 -0.262666 0.32983923 -0.20404507 0.5397386 -0.16916646 0.33636972 0.00647897 0.21375483 0.028256174 -0.11708359 -0.08103859 -0.2711758 0.4177809 -0.49217603 0.44681567 0.1699789
entity8 0.21670267 -0.4049513 0.2736807 -0.049684614 0.15393396 -0.16799821 -0.33246607 0.6720456 0.016699145 0.6077342 -0.9890504 -0.046391934 0.45990345 0.44337577 -0.59150493 -0.008624376 0.083649926 -0.0665154 -0.30925164 -0.21159504 0.6197004 -0.008288603 -0.27305946 0.2652245 -0.61782277 0.5673964 0.40798098 0.6588395 0.21288067 0.41186443 0.084896736 -0.70858073 0.06930545 0.40017602 -0.06547609 0.16803224 0.25545654 -0.1445185 -0.08079068 0.45436564 0.48450908 -0.3201236 0.23730193 -0.021649253 -0.20076151 0.24973546 0.53522015 -0.2080794 0.46832204 0.07656741
entity9 0.3274418 -0.31035766 0.18780375 -0.04292784 0.13815518 0.12335108 0.046945598 0.49454257 -0.37894323 0.22853114 -0.6850653 0.028093584 0.15935558 0.32737193 -0.5803929 0.040965937 0.3147884 0.003562412 0.10649782 -0.41588086 0.15840545 0.51812774 -0.14597815 0.54385936 -0.44920042 0.19977285 -0.09397019 0.6738489 -0.05446846 0.56874895 -0.14061601 -0.4910172 -0.19908515 0.056285363 0.09355938 -0.13965128 -0.080243476 0.03885154 0.021592291 0.43568692 0.23459359 -0.34997737 0.39842114 0.011843132 -0.48199677 0.25050488 0.41600144 -0.41874924 0.8527365 -0.19025421
issues 0.44075334 -0.39754578 0.015079464 0.27797452 -0.050741963 0.03945529 -0.060154557 0.5708969 -0.3036537 0.39134353 -0.69515175 -0.21310434 0.47515133 -0.035312522 0.0810317 -0.031107014 0.043607492 0.01752925 -0.0061779087 -1.0142564 0.4359686 0.035638783 -0.3702537 -0.03287407 -0.44791168 0.8413405 0.20655152 0.6540466 0.6159335 0.2908936 -0.20674129 -0.85154074 0.2647636 0.3649327 -0.3715139 -0.3307297 0.24332114 -0.29142 -0.107853495 0.18133633 0.42908025 -0.08371019 -0.052244954 -0.11814413 -0.42089745 0.12860104 0.6074543 -0.4174443 1.1961895 -0.0023317353
approaches 0.35387057 -0.2334118 0.03544629 0.004167737 0.00473147 0.16007449 0.21579376 0.46761775 -0.20061775 -0.0545538 -0.43560365 -0.09157086 0.32790872 0.19950593 -0.23761457 0.08159541 0.00579769 0.031795125 0.23203379 -0.5656806 0.11522364 0.42727947 -0.15138303 0.24217045 -0.29834467 0.032501332 0.18804502 0.29561305 0.23064557 0.49559683 -0.49098414 -0.43356892 0.05981112 -0.011314192 -0.21194105 -0.11632618 -0.0917576 0.025796752 -0.011680577 0.70000196 0.22768041 0.009010222 0.33851108 0.23329328 -0.038384475 -0.16608703 0.41229194 -0.3109223 0.39902186 0.029967427
entity10 0.27772853 -0.2338849 0.11077095 0.09773061 0.07933395 0.06460023 -0.036447823 0.46847042 -0.15733385 0.20261768 -0.5562531 -0.07293474 0.33797538 0.22451063 -0.40745392 0.14113306 -0.0037815336 0.0580657 -0.0410015 -0.35047454 0.22510672 0.17279066 -0.14974952 0.22994214 -0.341529 0.2532731 0.18925674 0.48764318 0.099174425 0.44173968 -0.16910079 -0.5122738 -0.075971276 0.24980296 -0.11870338 0.00717768 0.108757965 -0.052883927 -0.11952838 0.50105065 0.26374957 -0.110939145 0.26255593 0.18874869 -0.1927078 -0.0048238277 0.4572995 -0.2847521 0.45459467 0.111179866
where 0.25421956 -0.09230739 -0.015231035 0.2836566 -0.01803032 0.20241146 0.36224985 0.4194051 -0.07358196 -0.15212238 -0.32338533 0.118461795 0.07601542 0.26930797 -0.3176968 0.24328443 -0.1069777 -0.015798856 0.2725306 -0.38801342 -0.25142068 0.32837477 -0.1808098 -0.053328693 -0.2528428 -0.009736845 0.12427056 0.43390834 0.15725993 0.5403687 -0.38736427 -0.49610174 0.116766505 -0.16989852 -0.14173518 -0.028956158 -0.07357398 0.14510034 -0.1984984 0.610042 0.053463243 0.09927129 0.24220337 0.21444488 -0.039979212 -0.16215359 0.5900897 -0.3804109 0.31900665 0.021165557
entity11 0.54180425 -0.23565513 0.24000119 0.12954003 0.040642515 -0.23495981 -0.10927095 0.3187739 -0.1475025 0.14637423 -0.81184167 -0.05899752 0.627523 0.35795817 -0.61747634 0.032735985 0.0059177554 -0.055662815 0.045496996 -0.30755454 0.2893631 -0.016115248 -0.41501778 0.26044434 -0.44657585 0.6235646 0.030542864 0.50152487 0.061578847 0.40928736 -0.03157091 -0.6776079 0.25088513 0.24085124 -0.26132005 0.1176741 0.018552395 0.07729159 -0.20136513 0.5099224 0.27750185 -0.13685991 0.09787915 -0.18361397 -0.42684266 -0.13947122 0.6770509 -0.23339958 0.7462441 0.0019371961
dbmss 0.26648414 -0.11106904 0.0078022294 0.22222693 0.009926294 0.13309653 0.11116427 0.43018857 -0.2095215 -0.066874176 -0.43385488 -0.08513738 0.26471177 0.2639447 -0.32477528 0.34159145 -0.11496993 0.0523632 0.0583397 -0.3467275 -0.050831616 0.25214058 -0.15738066 0.03403701 -0.24046358 0.19491622 0.059747327 0.3507781 0.042559233 0.50377655 -0.38424802 -0.47171015 0.035109088 0.073324226 -0.14199492 -0.01659108 -0.005267395 -0.013227333 -0.13893385 0.6120947 0.05432606 0.05754646 0.17855841 0.359823 -0.22850852 -0.16550955 0.5656337 -0.279429 0.36591843 0.021188363
should 0.48822966 -0.09555953 0.026436543 0.26316258 0.18046808 0.21687524 0.41565505 0.45509002 -0.43873125 -0.38787925 -0.49253225 0.12571388 0.10225094 0.42805555 -0.3329887 0.3252249 0.12663081 -0.006865949 0.17292829 -0.42670086 -0.24664193 0.12315586 -0.060577597 0.12719963 -0.15484408 0.09923781 -0.041161943 0.18248361 0.016382193 0.4828791 -0.3169516 -0.5245575 0.37012556 -0.32583895 0.09580733 0.102489024 0.04868885 0.14637713 -0.4107323 0.9312518 -0.091345094 0.39765775 0.260811 0.06926342 -0.28202185 -0.3440358 0.68162155 -0.35856915 0.45989496 0.10986792
do 0.48342472 -0.05119387 -0.04613442 0.21758461 0.11936656 0.4210911 0.4935704 0.6225247 -0.43666 -0.5274403 -0.38128483 -0.12509109 0.2188139 0.30577874 -0.13343944 0.39981693 -0.015747413 0.22724286 0.35111955 -0.5654451 -0.17090558 0.22159013 0.055801608 -0.0321375 0.14598264 -0.18740733 -0.019058589 0.16125846 0.14716879 0.70877224 -0.7457139 -0.5396539 0.24098352 -0.12979849 0.04621597 -0.13370724 0.27127033 0.057034604 -0.27612966 0.87032115 -0.0019356877 0.44388235 0.38046077 0.3396021 -0.22329816 -0.62709165 0.46673262 -0.07175349 0.48168734 -0.021872617
better 0.3817637 -0.024725132 -0.039712533 0.25786415 0.04803728 0.2258033 0.3720499 0.51614857 -0.21020985 -0.34359676 -0.26335683 0.06810458 0.081572905 0.42213762 -0.26987502 0.3615735 -0.15900753 0.07003956 0.3335893 -0.30422917 -0.28427097 0.21891221 -0.015102915 -0.07873226 -0.037709456 -0.17120945 0.10472072 0.31264788 0.13035911 0.6529745 -0.55223525 -0.55875367 0.088040024 -0.22395211 -0.17168935 -0.011987495 0.04691162 0.17223506 -0.2347487 0.8119769 0.0054994454 0.17330231 0.28971708 0.3939205 -0.021181786 -0.36691654 0.51442266 -0.21490926 0.27836668 0.009691622
a 0.3964941 -0.45862517 0.27061948 0.16772233 -0.26856425 -0.30059624 0.59168077 -0.22940218 0.20583594 0.1354164 -0.69553447 -0.09328061 0.35544017 -0.03707534 -0.30354393 0.31371778 -0.015982889 0.061770473 0.06846896 -0.38305557 0.08863147 -0.24072568 -0.076980405 -0.20776173 -0.17690715 0.16568539 0.3115726 0.42837337 -0.059430763 0.36837757 0.120570846 -0.4602167 0.0011281505 0.10065265 -0.6068352 -0.20203713 -0.5754235 0.7289318 -0.3599696 0.86159205 0.54968536 0.1816599 0.30322215 0.3971841 0.26395267 -0.25696942 0.7430097 -0.44993278 0.33235174 -0.006587818
based 0.20158593 -0.23138243 0.4256823 -0.32317582 -0.20415874 -0.11519949 0.015696686 0.52034885 0.21095754 0.34201366 -0.9088854 0.30460963 0.4470076 -0.027559672 -0.14149804 -0.15515843 -0.11014507 0.28657874 0.10635536 -0.1779773 0.24472064 0.12655143 -0.2998092 0.4156667 -0.7813991 -0.2646624 0.18744497 0.67037517 0.026761847 0.7257434 0.19766153 -0.4567578 0.095438756 -0.21159178 -0.015555404 0.05719929 0.007313181 0.20920223 -0.2907925 0.5032376 0.714123 -0.17737153 0.52527624 -0.18894413 0.10971957 -0.0975707 0.76405275 -0.7352079 0.50744367 0.33350238
on -0.37596506 0.00010074317 -0.08358678 -0.020165559 0.09391301 -0.24807906 -0.09579125 0.2443893 0.27125692 0.26013294 -0.67958677 -0.19006203 0.46920604 0.056402043 -0.8457143 -0.1530081 -0.440529 -0.06914461 0.6583205 -0.73755246 -0.0014304301 0.5214323 -0.044475492 -0.1508957 -0.37563106 -0.29682985 0.31901294 0.46528894 0.035250966 1.1920102 -0.46754825 -0.19638397 0.7157956 -0.37860885 -0.25650445 -0.15957771 -0.46126604 0.23959996 0.28983364 0.39381665 0.22966823 0.059979882 0.23268445 0.27492967 0.0660016 0.3442497 0.6441504 -0.10841249 -0.035770893 -0.32425568
early 0.22326587 -0.15839659 0.029761823 0.18991683 -0.011328522 0.09431343 0.1145356 0.46806043 -0.1273502 -0.0028803498 -0.41415706 -0.068072714 0.24301444 0.27786982 -0.29932255 0.3132687 -0.10281946 0.053363193 0.07342604 -0.3885167 0.022950944 0.19666779 -0.11137501 -0.0036248765 -0.27142173 0.13909256 0.2010309 0.3959878 0.1666898 0.49085543 -0.31072888 -0.5499426 0.025369737 0.0709142 -0.20012854 -0.026460173 0.09115431 0.06424715 -0.15926787 0.55638266 0.110028535 0.095041685 0.2545665 0.34345192 -0.08622923 -0.09140476 0.53429395 -0.29808939 0.45460206 0.03455977
distributed 0.31277093 -0.2841182 0.1978742 0.12230449 0.11624149 -0.08914464 -0.054560434 0.46157545 -0.037924394 0.4061167 -0.7969497 -0.117809206 0.3972003 0.29397446 -0.44998336 0.058582626 0.04074165 -0.0005773669 -0.09548432 -0.41706786 0.40742806 0.20105352 -0.16816571 0.2762033 -0.42334417 0.53076607 0.15877075 0.4453342 0.18886898 0.33960283 -0.18586434 -0.6148902 -0.07986275 0.39622012 -0.067009196 -0.05531111 0.13062575 -0.10585829 -0.14745764 0.50560427 0.38796312 -0.25785372 0.26886538 -0.032399893 -0.26927435 0.07478253 0.42607665 -0.30725983 0.51037705 0.0831256
entity12 0.6481664 -0.2202843 0.23642068 0.012215908 0.17097567 -0.31588545 -0.08232059 0.7437184 -0.42692965 0.1558514 -1.0564537 -0.07783153 0.5571308 0.16155918 -0.38519305 0.14038032 0.4467582 0.0502655 -0.1955326 -0.5052014 0.6562304 0.06513797 -0.47026348 0.43555602 -0.6167172 0.6032383 -0.13114001 0.4052391 -0.06357934 0.4194967 -0.09178974 -0.57610726 0.2428044 0.23231554 -0.22239028 -0.12215383 0.28337193 -0.10455489 0.04070792 0.39613006 -0.022059502 -0.008853503 0.14783135 0.030998943 -0.49057788 -0.29672033 0.6333113 -0.15545169 0.7264375 0.15402366
entity13 0.3548862 -0.27019632 0.31588313 0.02557278 0.011855 -0.2717164 -0.28705734 0.40377682 -0.027421849 0.45696458 -0.8121326 -0.055058695 0.5962386 0.36726493 -0.65855795 0.07286652 -0.027059367 -0.008311523 -0.2135847 -0.27009124 0.5306247 -0.054889385 -0.31232142 0.3408617 -0.68274367 0.5637875 0.24261767 0.60707194 0.10363739 0.3881083 0.090311706 -0.63304937 0.13530712 0.39709517 -0.25560388 0.21484447 0.15229249 0.018932506 -0.1568348 0.31124684 0.37270188 -0.12479654 0.19529942 -0.074184865 -0.2865381 0.22023247 0.64861333 -0.20924342 0.67257154 -0.0005728645
entity14 0.24161315 -0.16688228 0.07634755 0.17927729 -0.01552938 -0.019762332 -0.018410956 0.39511213 -0.08250264 0.1136445 -0.5403195 -0.09853588 0.39664188 0.26548865 -0.33561027 0.19520208 -0.0969283 0.049394462 0.05644474 -0.38177702 0.15506977 0.1352768 -0.28404105 0.12292646 -0.30105078 0.31518808 0.16138291 0.42725268 0.109521896 0.41283938 -0.107109874 -0.48644692 0.05470988 0.111652225 -0.22131945 0.016926996 0.009599989 0.03618959 -0.15923856 0.4855558 0.11217033 -0.035637047 0.15154435 0.18322584 -0.18757927 -0.08303422 0.5953624 -0.30752185 0.5146964 0.048250556
entity15 0.110203855 -0.07895147 0.03966801 0.2812434 0.033395886 0.101060525 0.03708586 0.43172947 -0.116002925 -0.015710644 -0.3042662 0.034496654 0.16222642 0.25052655 -0.37463716 0.3860053 -0.13598494 0.08228165 -0.016869918 -0.22946891 -0.05874599 0.08199043 0.0019277087 -0.121373706 -0.25071692 0.10543187 0.14968644 0.39617983 0.043206982 0.5511848 -0.21646956 -0.41241574 -0.045945346 0.047844186 -0.16877821 0.05211418 0.13321976 0.08079066 -0.11676402 0.49537873 0.11732645 0.16931497 0.2516153 0.4857476 -0.08793345 0.020990897 0.530975 -0.22982292 0.32376194 0.031318188
story 0.23806988 -0.11506983 0.05531074 0.24770644 -0.023985282 0.10137743 0.20972285 0.32231975 -0.14586212 -0.06778534 -0.30387387 0.005104481 0.18238083 0.2297902 -0.31265002 0.28645697 -0.03980078 0.12781012 0.0916942 -0.36409497 -0.049933445 0.19070216 -0.026668677 -0.047348097 -0.2561228 0.11912446 0.1371082 0.3932258 0.08602126 0.52581286 -0.29944155 -0.48729044 -0.03841179 0.036434855 -0.19222528 -0.002732338 0.033489738 0.20558713 -0.19065371 0.502846 0.102886595 0.13332428 0.29054028 0.3460213 -0.090483174 -0.06167585 0.50202996 -0.31363794 0.42727086 9.9590165e-05
developing 0.3275369 -0.19203404 0.12580346 0.20533787 -0.11946544 0.044222012 0.15916985 0.3996833 -0.08239709 0.14676209 -0.5103677 -0.18145497 0.45140323 0.16585176 -0.35122797 0.19622797 -0.16747676 0.010233823 0.16939163 -0.4607201 0.08613721 0.26299846 -0.41660148 0.24023673 -0.28758493 0.28993592 0.1544329 0.43114358 0.23049033 0.23670055 -0.20097005 -0.60867494 0.15585554 0.21354797 -0.33694807 -0.07351645 -0.05094086 0.06972617 -0.30400926 0.5434517 0.042418446 -0.06263532 0.12425113 -0.005075791 -0.09453922 -0.15909922 0.57012737 -0.38041914 0.5257816 0.15756853
entity16 0.1870828 -0.22638632 0.0510798 0.011773344 -0.018919064 0.05218556 0.010241762 0.5109278 -0.14927961 0.18537104 -0.53694576 -0.18741195 0.3205598 0.1802197 -0.21778226 0.26734525 -0.09963856 -0.052935734 0.0033803794 -0.4752771 0.16117151 0.22677183 -0.29786038 0.11731423 -0.36851734 0.25401387 0.3267578 0.3941599 0.27757502 0.33902 -0.2841062 -0.51844615 0.10585474 0.20839827 -0.20292668 -0.07223289 0.084099084 -0.16938846 -0.17946102 0.44898444 0.09661448 -0.013253871 0.123217024 0.22091986 -0.08696783 -0.06734084 0.5328171 -0.31555945 0.41104776 0.12988384
mapping 0.117334135 -0.21387197 0.21536246 0.14822842 0.024847714 0.04189623 0.08731317 0.5018965 0.036646485 0.18931971 -0.5633784 0.04474956 0.22687134 0.31776354 -0.533051 0.22934464 -0.08981996 -0.06603173 0.017613117 -0.2341587 0.061558876 0.24057992 -0.14751212 0.17841679 -0.44201395 0.2164782 0.18754412 0.44974542 0.01360827 0.34805635 -0.025858553 -0.5703402 -0.03253605 0.17288 -0.2612095 0.108637355 -0.117477976 0.11508594 -0.080766924 0.58797693 0.20678467 -0.21140735 0.25907654 0.18300615 -0.003952747 0.07713088 0.5523871 -0.34276664 0.18219025 0.18588422
entity17 0.19444273 -0.19161764 0.10974048 0.12865624 0.027750526 0.01604047 0.02873382 0.45880964 -0.07171436 0.15424238 -0.51584494 -0.035992634 0.2781319 0.23442113 -0.39553556 0.18754245 -0.049262837 0.035374574 -0.020359665 -0.3117113 0.17020018 0.14774272 -0.13630627 0.14514972 -0.34695557 0.20914572 0.22732452 0.45051676 0.09890778 0.43110907 -0.14388314 -0.47813553 -0.0052774074 0.16077928 -0.19889861 0.026575468 0.046833765 0.049489353 -0.11775854 0.5054265 0.2170271 -0.038158245 0.25235644 0.20917061 -0.093372755 -0.0054167476 0.4804803 -0.2830654 0.3381976 0.09615803
transactions 0.12861067 -0.17484047 0.053314287 -0.0013538357 0.0031793362 0.009897659 -0.13423945 0.5260005 -0.18292922 0.112643495 -0.54488635 -0.21756834 0.34137276 0.21847804 -0.29147342 0.36483723 -0.20663998 -0.10413789 -0.03243675 -0.3475215 0.009997991 0.224714 -0.2416425 0.17153293 -0.3192559 0.2481853 0.20035936 0.31188655 0.019882249 0.40081885 -0.3271088 -0.34152555 0.03298974 0.14391007 -0.21674217 0.010913232 -0.07999518 -0.14929104 -0.034913663 0.6263055 0.021184329 -0.07647928 0.100458406 0.46810427 -0.20236982 -0.10159147 0.6692135 -0.37608415 0.220439 0.18623915
for 0.11889548 -0.0043097627 0.53305787 -0.22465536 0.07162119 -0.31542715 0.50988585 0.7040335 0.18823662 0.27776456 -0.85104 0.0817549 0.21098262 0.30712473 -0.5818086 0.08011392 0.10030143 -0.015912794 -0.17380777 -0.6024042 0.5095368 0.12951885 -0.4805032 0.101785004 -0.5519373 0.2301302 0.19871037 0.34449264 0.21313326 0.47086036 0.040464018 -0.40916765 0.538725 -0.08719255 -0.19619276 -0.0811055 0.32282835 0.3318066 -0.30241707 0.48216954 0.30771735 0.18210621 0.08754778 -0.08416745 0.061022952 -0.18030015 0.4215701 -0.16336189 0.4096669 0.037457
environments 0.2211226 -0.4191245 0.08830316 -0.08045096 0.047001634 -0.015226142 -0.011350188 0.7139469 0.025312863 0.38417304 -0.8279488 -0.11522612 0.3722183 0.41517723 -0.359057 0.1102025 -0.016156929 -0.13532753 -0.039000403 -0.41121325 0.3895113 0.24268125 -0.37567195 0.25884822 -0.38810745 0.27553067 0.43115616 0.48950922 0.30934352 0.23524755 -0.11130629 -0.6708875 0.14403185 0.28275335 -0.23382561 -0.07253531 0.06479046 -0.17723516 -0.1365425 0.54733616 0.22161604 -0.2501635 0.11504213 0.018872736 0.027012276 -0.044752244 0.50771 -0.24068399 0.32935345 0.118519716
schema 0.36856472 -0.23976295 0.17754541 0.24456269 0.055677935 0.12512513 0.22363734 0.3878369 -0.40737358 -0.18248007 -0.6130018 -0.106132716 0.26324454 0.32289776 -0.3416224 0.40032753 -0.04150961 -0.10806048 0.15593612 -0.3045927 -0.40641803 0.24349517 -0.3254069 0.103583686 -0.27966526 0.44249323 -0.081466354 0.21754034 0.0071270624 0.37117097 -0.4126846 -0.724753 0.04477329 0.21552637 -0.047487803 0.00685218 -0.19264589 0.009083677 -0.20951769 0.6837721 -0.17466499 -0.004310744 0.06032314 0.15299445 -0.22093551 -0.3910936 0.52048427 -0.43675482 0.30067527 0.41153824
entity18 0.3036565 -0.26567182 0.2012155 0.11171356 0.061537053 -0.09538046 -0.102043666 0.41243577 -0.044352822 0.34509063 -0.66497433 -0.07724769 0.46335223 0.26962745 -0.52363664 0.052990835 0.01399436 0.06540247 -0.120785855 -0.35245207 0.41789207 0.07624537 -0.1830389 0.28098196 -0.44911546 0.41400427 0.224244 0.549688 0.14701581 0.41710892 -0.048489314 -0.5605567 -0.022913503 0.32130685 -0.2005513 0.06559607 0.10686177 0.058178846 -0.09764145 0.4960042 0.3232677 -0.13358101 0.28725466 0.051221844 -0.20024166 0.06029369 0.45853916 -0.2377653 0.44834977 0.06350189
/ 0.05739427 0.47884613 0.55685896 0.6614818 0.116226286 0.10181706 -0.1161266 0.28311855 0.14290491 0.42192772 -0.5446764 -0.74184453 0.79209673 0.06742038 -0.7678205 0.85204905 -0.9806622 0.33654433 0.025151268 -0.30491972 -0.16972132 0.1078093 -0.29312193 0.5566004 0.032181896 0.52622545 -0.46406382 0.27571735 -0.14828189 0.3194355 -0.3049474 -0.2545291 -0.044054043 0.30068475 -0.35595557 -0.08734029 -0.20403329 0.16344087 -0.5722258 0.7728626 -0.2993629 -0.25174898 -0.16392043 0.47169814 -0.442664 -0.14731543 0.842152 -0.5132303 0.18067339 0.14481148
m 0.00698936 -0.0318365 0.15878257 0.20229897 0.23834522 0.029787414 -0.29755217 0.45057765 -0.10303858 0.14807099 -0.5083654 -0.18732534 0.35101786 0.24563123 -0.49138653 0.47768754 -0.25732687 0.16861601 -0.20312499 -0.1743546 0.11422508 -0.09583355 0.0042237155 0.05101047 -0.17254308 0.2626438 0.09749401 0.37330675 -0.11176479 0.5809149 -0.18450893 -0.25072715 -0.10328106 0.21472396 -0.04196999 0.097606026 0.1546686 -0.08850984 -0.073072426 0.607908 0.1673723 0.06638914 0.17181765 0.6601118 -0.251478 0.044402197 0.6794486 -0.185294 0.24308984 0.07731235
physical 0.41455466 -0.52914333 0.040350825 0.32885808 -0.0032559494 0.028178351 -0.017437898 0.67240256 -0.477198 0.44560534 -0.85056376 -0.38199043 0.60357016 -0.18179657 -0.052700043 0.1920563 0.102344334 -0.06737306 0.014301857 -1.0771314 0.27094933 0.32158092 -0.6430652 0.1860194 -0.6116146 1.1344558 0.08340397 0.59784245 0.5821008 0.24765049 -0.4206855 -0.8593147 0.03301068 0.5485573 -0.43256095 -0.3212758 -0.023254814 -0.30770463 -0.15791667 0.30471897 0.24979565 -0.07859983 -0.1357298 -0.03305921 -0.38695514 -0.024560278 0.4763319 -0.7516239 1.0231197 0.34087092
introduction 0.3899195 -0.084711045 0.337366 0.20425911 -0.15174063 -0.10198794 -0.30320048 0.21813461 -0.25290218 0.2722151 -0.592161 -0.47097075 0.8680953 0.19540566 -0.46767503 0.17271347 -0.3027879 0.5409673 0.021233246 -0.45142904 0.5107594 0.049944967 -0.35800657 0.42647487 -0.5358887 0.4098689 0.020860117 0.60163975 0.25931826 0.69828194 -0.22946872 -0.44488242 -0.03343474 0.23507984 -0.16712253 -0.0020685839 0.3600267 0.2200816 -0.19995669 0.11723784 0.05564481 -0.029981738 0.15131037 0.2844489 -0.35225752 0.13651007 0.36938024 -0.093372285 0.9621064 -0.20491593
to 0.70051 0.42713523 -0.09417157 0.101662464 0.2510076 -0.11885284 0.81358844 0.5949889 -0.16966926 0.011428499 -0.31037533 0.041599073 0.31938308 0.37130585 -0.6637488 0.10470879 -0.3083142 -0.2545728 -0.12554863 -0.41517997 0.18081701 0.17278372 -0.1459598 0.4259968 0.15103701 -0.02628399 -0.029674634 0.4050298 -0.3628067 0.572254 -0.4102135 -0.5933405 0.19064775 -0.11203335 -0.31543127 0.0009445836 -0.22916539 0.28719142 -0.91671926 0.5307157 0.08896716 0.25949863 0.03960534 -0.08247116 -0.12874894 -0.07898223 0.4395504 -0.50844866 0.41638374 -0.00060604414
part 0.39324468 0.001513108 -0.0803331 0.41249192 -0.19315463 -0.023425568 0.18476564 0.06558714 -0.3533589 -0.34624073 -0.15871471 -0.023221932 0.27843696 0.11358563 -0.34428963 0.24343367 -0.09573135 0.13336493 0.16506943 -0.52203727 -0.34663334 0.20736861 -0.26978284 -0.14301233 -0.22948581 0.3172676 -0.01038919 0.44005823 0.062260464 0.6359574 -0.4558207 -0.3809667 0.12524895 -0.20081358 -0.33459964 0.011957307 -0.045818195 0.27211905 -0.27505758 0.50779164 0.073174566 0.2191903 0.2033209 0.3180511 -0.31653303 -0.09602085 0.783796 -0.3147278 0.7440455 -0.27245525
1 0.09815054 -0.0089670215 -0.03257918 -0.10969945 -0.08029923 0.010724652 -0.43152514 0.32421693 -0.3431543 -0.032649342 -0.383256 -0.41589683 0.6694281 0.19983904 -0.18642831 0.8512964 -0.34573174 0.3342142 -0.22158405 -0.35056975 0.33391196 -0.19889106 -0.11019597 -0.14792792 -0.014429506 0.3673336 0.2002802 0.15865098 -0.1919209 0.63484013 -0.36608917 0.054134894 -0.03382439 0.16898875 0.038437594 0.10697151 0.12193135 -0.16846783 -0.0457129 0.756598 0.16402201 0.5323546 0.13045874 1.1026776 -0.4061603 -0.19930145 0.97241306 -0.18855864 0.38975698 -0.05582915
next 0.25096074 -0.18898572 0.16088732 0.14440931 -0.12088796 -0.01153033 0.1300819 0.31158754 -0.14207613 0.04444773 -0.39025176 0.009773452 0.29356217 0.26492652 -0.41150463 0.1961465 -0.019999687 0.034909327 0.07147245 -0.4081806 0.033436242 0.24016002 -0.2312585 0.11330929 -0.4390458 0.22248498 0.17305811 0.42676988 0.10757126 0.47858888 -0.20329706 -0.53670144 0.059464797 0.0744436 -0.22637507 0.09468881 -0.041614786 0.24887317 -0.15464613 0.53716874 0.08805713 0.053269424 0.29362622 0.16602403 -0.052078273 -0.04170682 0.58525443 -0.3281372 0.41961327 0.10499103
generation 0.17853977 -0.2978046 0.19787093 0.038128883 -0.11176557 -0.049242318 0.023684308 0.4332459 -0.013159343 0.29263777 -0.5588172 -0.06196423 0.37361953 0.25414002 -0.41196665 0.1573892 -0.018976351 -0.09558342 -0.027678983 -0.41819984 0.24685213 0.26735008 -0.2491848 0.28845558 -0.48185918 0.31075242 0.27410752 0.47511536 0.12652603 0.28271163 -0.040226538 -0.61732215 -0.06288852 0.21346293 -0.30043358 0.09821512 -0.14654471 0.18341045 -0.1809338 0.6199853 0.24103546 -0.14052211 0.29227528 0.09708383 0.050077114 0.06375321 0.53125983 -0.46694478 0.34986886 0.22599146
entity19 0.25991765 -0.27740178 0.16278958 0.15477252 0.09122037 -0.09232278 -0.11843002 0.39565328 -0.09310146 0.31658992 -0.6542313 -0.11450121 0.43982074 0.32913747 -0.46745557 0.030789088 -0.046227843 0.046292756 -0.13846701 -0.30913153 0.4195723 0.057041723 -0.07469824 0.21925932 -0.35869238 0.44890696 0.21346593 0.54623455 0.09871107 0.46828172 -0.08216623 -0.55866784 -0.028919311 0.24863973 -0.09793059 0.06974151 0.14432557 0.12085978 -0.077529 0.4906602 0.26308784 -0.1839609 0.24954344 0.10818902 -0.34524557 0.09284273 0.50525546 -0.32021737 0.47505587 -0.024612367
entity20 0.3459324 -0.13599801 0.273953 0.017195981 -0.037418395 -0.28982618 -0.30211413 0.41857246 -0.062379822 0.52252614 -0.6729623 -0.15186016 0.61302024 0.312631 -0.4511501 0.13751037 -0.19015019 0.059167318 -0.22035119 -0.25553665 0.5617864 -0.1086325 -0.16435629 0.27509087 -0.5045875 0.37868476 0.22798024 0.6083438 -0.030502893 0.41388512 0.07394152 -0.5362572 0.08264409 0.24860969 -0.36978516 0.117209755 0.17612875 0.14783084 -0.15090407 0.25500548 0.32545194 -0.11161122 0.21489367 0.2170915 -0.28569883 0.36075276 0.6500405 -0.28117 0.7141188 -0.10727824
entity21 0.14181021 -0.13066106 0.071339734 0.16647929 0.009071208 0.054314896 0.015674734 0.4512541 -0.14111033 0.02619189 -0.39981028 -0.051375326 0.20057024 0.27849242 -0.38961935 0.36004114 -0.12525482 0.030618366 0.02363209 -0.27512592 -0.025263615 0.16065659 -0.11589336 0.043751445 -0.26512915 0.118843965 0.123970725 0.39062923 0.042646058 0.46590653 -0.2173163 -0.4382908 0.0110628 0.04125115 -0.19136736 0.021738203 -0.005608478 0.06695647 -0.13709985 0.55278724 0.04891709 0.06515733 0.19109438 0.38932928 -0.12722181 -0.05708982 0.5665012 -0.27846047 0.27965933 0.047750443
future 0.5272004 -0.25210482 -0.03439613 0.030530369 -0.020026626 0.08236377 0.2691241 0.39299476 -0.23272838 0.019063432 -0.40057537 0.005451889 0.24146117 0.24008518 -0.06726421 -0.11314344 0.086075276 0.025803503 0.20406933 -0.63687015 0.20341924 0.26081437 0.016500328 0.102606736 -0.3847286 0.06522681 0.40116602 0.40364504 0.43123114 0.47163665 -0.5218139 -0.78058755 0.10800679 0.18897702 -0.21990612 -0.18048945 0.22604519 0.054286305 -0.20416719 0.4454442 0.37703672 0.10305292 0.4609434 -0.026939072 -0.11358255 -0.05054653 0.32495254 -0.30914927 0.80463994 0.07195262
2 -0.23769572 0.014689363 0.24108382 -0.087833636 0.19736889 -0.20084652 -0.5863407 0.4239888 -0.012885841 0.25523117 -0.67258614 -0.38877085 0.6268848 0.08576061 -0.45574573 0.6112187 -0.34123397 0.16031411 -0.42157665 -0.30499664 0.45047486 0.0036480408 0.017281106 0.3782358 -0.4554902 0.25369182 0.31013912 0.30970755 -0.21436125 0.7032172 -0.36236495 0.19937798 -0.1002228 0.23503886 -0.112792626 0.14895251 -0.004903724 -0.21861406 -0.007332471 0.60287565 0.2644073 0.14041145 0.3252589 0.93349856 -0.33853188 0.08755008 0.8156011 -0.35879117 0.10016028 0.09409717
legacy 0.25158453 -0.14844713 0.07591576 0.15296222 0.031876236 0.06960257 0.08052645 0.41039428 -0.17725202 0.029294739 -0.45678243 -0.03565458 0.25936976 0.24910471 -0.34804875 0.2382484 -0.04185071 0.067013316 0.065003246 -0.35552806 0.038382433 0.1818251 -0.086474545 0.086466655 -0.3261239 0.17942785 0.15130493 0.37906697 0.08661046 0.51747763 -0.296482 -0.4632929 0.0018589066 0.08517701 -0.12719513 0.0007746201 0.07543196 0.05929399 -0.16039123 0.5237515 0.17821449 0.04108765 0.28624383 0.27150542 -0.15468071 -0.044630602 0.4985556 -0.2771634 0.4381428 0.049124222
entity22 0.24571574 -0.4110541 0.24789128 -0.017174454 0.16202617 -0.12332924 -0.3354064 0.66660345 -0.028026477 0.6942536 -0.99905485 -0.083170645 0.4761764 0.43883333 -0.46890286 0.14507504 0.15288356 0.0046935165 -0.47343144 -0.26101124 0.7103125 -0.016315103 -0.19275117 0.2605212 -0.6621839 0.6133081 0.4105507 0.6577475 0.15178084 0.4046113 0.09318603 -0.7371709 -0.009107814 0.5371179 -0.20098786 0.14464317 0.31280908 -0.17176542 0.013004689 0.41273355 0.3438121 -0.22118679 0.23121724 0.1972011 -0.16409327 0.2632775 0.5084437 -0.15796877 0.4551193 0.075261414
requirements 0.43154618 -0.22043368 0.12681176 0.09453112 -0.015488322 0.042193066 0.15880732 0.3438695 -0.25238436 -0.034527767 -0.5541235 -0.04269007 0.38275895 0.36059928 -0.35236055 0.16952884 0.043238405 -0.0035504883 0.12963639 -0.43451086 0.06716205 0.20432605 -0.22995035 0.18642461 -0.36918023 0.26660773 0.1521357 0.35318643 0.171158 0.39872074 -0.26279005 -0.6225211 0.17593311 0.15338308 -0.16803253 0.045136712 -0.014556853 0.15721576 -0.19477251 0.5952064 0.024035973 0.07729244 0.2712096 -0.021292936 -0.19466555 -0.1899556 0.5360493 -0.25801665 0.5251391 0.10760403
performance 0.57273966 -0.4002203 0.019290654 0.1393341 0.06728314 -0.0115678515 0.0067103733 0.44946268 -0.22254997 0.11763436 -0.44174466 0.16592738 0.30225113 0.36706376 -0.36303207 -0.21617639 0.14359915 -0.037220005 0.17592973 -0.43487036 0.1591143 0.057959676 0.09159461 0.068588376 -0.46499345 0.16519538 0.27921048 0.6123146 0.30414236 0.5808807 -0.4201591 -0.77282184 0.08901905 0.14938767 -0.26886752 -0.033123005 0.24845481 0.106625274 -0.08166148 0.503198 0.4866298 0.018936902 0.42450935 -0.18912761 -0.17920408 0.0967959 0.19176066 -0.25003296 0.6322876 0.010297488
benchmark 0.18733373 -0.20270611 0.15572023 0.06553028 0.029883847 -0.122872815 -0.12846448 0.38175336 -0.11825995 0.22620712 -0.60437214 -0.06930096 0.4252328 0.2102742 -0.49486676 0.12220148 0.015672982 0.06877523 -0.1362103 -0.355646 0.33883944 0.13768406 -0.11544976 0.20071036 -0.5488692 0.3440488 0.27264324 0.4354742 0.007459135 0.4876784 -0.18648925 -0.37370533 -0.07621798 0.22952904 -0.1406564 0.13753733 -0.053682327 0.07834913 -0.051847458 0.50262344 0.3546778 0.011689111 0.32628182 0.21872768 -0.1644286 0.10190259 0.5088154 -0.31728265 0.34987935 0.11426198
view 0.18231453 -0.2981981 0.17999092 0.12485042 -0.1693176 0.09161022 0.21869774 0.29170108 -0.050672606 0.04484097 -0.408513 0.12879366 0.33538565 0.2622043 -0.5741186 0.084737845 0.044394508 -0.056251068 0.16493422 -0.46537834 -0.0026834458 0.38157615 -0.2430603 0.17056334 -0.5343187 0.16191693 0.24822435 0.45691064 0.043490034 0.4500443 -0.015119562 -0.5922345 -0.058883123 0.09718632 -0.31379634 0.16971652 -0.29025635 0.37040657 -0.07398015 0.7521174 0.17887035 -0.047154278 0.47045052 0.073191375 0.18701138 -0.023171246 0.58810395 -0.48685303 0.14942127 0.30052856
support 0.6240965 -0.23362812 -0.21859404 -0.13121094 -0.3496255 0.1440291 0.34569734 0.66894174 -0.0011631437 0.03487232 -0.5300817 -0.58446723 0.7609667 0.52445817 -0.38377586 0.52565175 0.023675436 0.16124818 -0.02568762 -0.4019683 0.6332937 0.2782565 -0.57523537 0.35006908 -0.16728832 -0.45048904 0.89716655 0.51486963 0.53728825 0.16766825 -0.2348732 -1.0403297 0.24449216 0.25983757 -0.27211198 -0.023878114 0.82745075 -0.16909033 -0.38323933 0.80924153 -0.0048830477 0.35546094 0.49979955 0.14863752 0.12585193 -0.56211734 0.08930128 0.3451591 0.3869851 0.17410256
entity23 0.3074596 -0.10609825 0.13015011 0.26129267 -0.05267046 0.05336681 0.2379408 0.33523795 -0.12676743 -0.09935524 -0.32803458 0.0438988 0.2209727 0.29703796 -0.35115045 0.1759975 -0.043203052 0.12991829 0.18434465 -0.39617208 -0.04470165 0.19749726 -0.1072911 0.041132007 -0.3095471 0.14747487 0.08109865 0.38631195 0.11921479 0.4606035 -0.25432676 -0.57670665 0.057660103 -0.06151958 -0.22994646 0.05007828 0.017517965 0.27437446 -0.21625555 0.5673781 0.11879622 0.062764935 0.3169546 0.14440371 -0.09601687 -0.044849645 0.567283 -0.27707148 0.5106644 -0.016373483
managing 0.20875163 -0.22255489 0.11723348 0.113326564 0.05247588 -0.019124504 0.1236021 0.46734434 -0.054846928 0.14631768 -0.57186407 0.027446631 0.22536086 0.28410402 -0.3252721 0.10611948 0.043494478 0.00868146 -0.02499957 -0.4135944 0.2587094 0.1611903 -0.102706745 0.12616941 -0.44196835 0.28898904 0.2571718 0.42279387 0.20483027 0.4027123 -0.19796106 -0.55934453 0.0833309 0.11007184 -0.18533488 0.0498918 0.025071714 0.07272066 -0.13204142 0.5042436 0.28576478 -0.018676523 0.2867803 0.11653079 -0.10678968 0.030053077 0.49401724 -0.31290054 0.4074539 0.025161745
entity24 0.0962165 -0.3235909 0.11408348 0.10157968 0.35692504 -0.021589829 -0.5730308 0.6601502 -0.0013352913 0.5567298 -0.7711046 -0.14117591 0.5777062 0.26574633 -0.7085543 0.1351719 -0.123986624 0.18886673 -0.35255012 -0.16395536 0.6098793 -0.28734812 -0.09990159 0.1688247 -0.33031794 0.3229997 0.4702131 0.7354301 0.114946686 0.639941 0.23266275 -0.35097176 -0.12166952 0.40335688 -0.1274636 0.14659725 0.4988042 -0.21528436 -0.050076913 0.5261002 0.5740761 -0.26307055 0.26694983 0.38041535 -0.26989335 0.33490717 0.6289802 -0.03936788 0.48307234 0.02141955
& -0.124544844 -0.14508402 0.003276472 0.0484986 0.0193279 -0.13837375 -0.35824776 0.64493674 0.05622382 0.34117875 -0.6748009 -0.35504857 0.49994612 0.11480412 -0.3095176 0.57219744 -0.36916757 0.07529022 -0.25636688 -0.30160367 0.47445762 -0.0237559 -0.4219436 0.2202204 -0.3317181 0.35693416 0.44080812 0.38206226 0.068713665 0.2747702 -0.054117776 -0.10065104 0.07791698 0.20529151 -0.29305962 0.049363192 -0.06429475 -0.20833421 -0.18825841 0.43406188 0.1799506 0.120069906 -0.10382323 0.6428861 -0.13768043 0.08017747 0.85834914 -0.35175902 0.5149497 -0.002087532
p 0.009087824 -0.08823607 0.047670845 0.14560463 0.037062068 0.10062726 -0.07600158 0.46285135 -0.14568262 0.017205695 -0.39649943 -0.09731001 0.27615806 0.2420855 -0.3738468 0.4985313 -0.17515336 0.15970744 -0.06534095 -0.2194071 -0.004034447 0.046811163 -0.070542425 -0.056495145 -0.19314066 0.09781124 0.17480834 0.32620686 -0.030732052 0.5754935 -0.23616652 -0.26664472 -0.06111595 0.06485415 -0.07909928 0.0735864 0.11220311 0.017676378 -0.1523441 0.5794257 0.07311262 0.21762422 0.2130624 0.61768925 -0.12127291 -0.06403491 0.6251594 -0.2369678 0.24189329 0.054349132
entity25 -0.018870665 -0.29644898 0.1417941 -0.058441993 0.24069703 0.12197629 -0.029626729 0.8064831 0.24332662 0.2161283 -0.9393625 -0.26636744 0.33942935 0.30697972 -0.2622522 0.2729281 0.691909 0.413952 -0.4517329 -0.41649574 1.009798 0.14080559 -0.43553397 0.61289066 -0.79918337 0.14386427 0.12749515 0.6691983 0.32638034 0.36228493 0.47199994 -0.7766344 0.22227147 0.12782653 -0.82446325 0.34345096 -0.013047956 -0.09619651 -0.078168616 0.82536125 -0.059504982 -0.38300115 0.28966603 0.2420568 0.42940557 -0.08223562 0.5812566 -0.1359748 -0.04341493 0.25256696
entity26 0.15761599 -0.13391626 0.0817004 0.14845069 0.029966101 0.034544174 -0.041860953 0.44333282 -0.13205226 0.101661496 -0.47778744 -0.13542497 0.33755416 0.21414568 -0.36670297 0.31716764 -0.12259664 0.10094904 -0.04841209 -0.36651516 0.15240611 0.14466502 -0.1706516 0.11909917 -0.35569477 0.18902019 0.21297936 0.4035918 0.06715352 0.4642593 -0.22920518 -0.39062256 -0.013907048 0.14265053 -0.17557377 0.04631601 0.040275052 0.00791461 -0.15581065 0.53105325 0.13786791 0.051474463 0.21798785 0.37342986 -0.13716705 -0.037415415 0.58221805 -0.28582907 0.3795064 0.081111796
entity27 0.30760106 -0.32519892 0.22362413 0.014244105 0.031316776 -0.11248481 -0.16913705 0.4484787 -0.09732657 0.38867757 -0.6861675 -0.06223838 0.4932421 0.32225475 -0.46898046 0.040253814 0.029618891 0.055157885 -0.14596675 -0.34951082 0.46482697 0.08309301 -0.19271104 0.33750725 -0.4620783 0.40086436 0.29865783 0.51476973 0.12941654 0.38373217 -0.021126917 -0.55972224 -0.01692965 0.29944006 -0.17386055 0.13807185 0.12389559 0.05958807 -0.13919981 0.4767274 0.3616806 -0.19407888 0.3403011 0.059731018 -0.17934836 0.16172564 0.54167014 -0.2492606 0.56231403 0.036232896
parallel 0.36982355 -0.1586776 0.21303947 0.19205692 0.11530809 -0.008245458 0.015206254 0.4000122 -0.14577588 0.26793244 -0.81372166 -0.34467354 0.667058 0.2251702 -0.43178052 0.2816484 -0.124291554 0.077212065 -0.063622534 -0.4666346 0.3550609 0.076776534 -0.33330795 0.3475932 -0.32365105 0.64151734 -0.05144024 0.32801804 0.09149657 0.2625029 -0.27881882 -0.67967 0.13194878 0.51020265 -0.1847435 -0.14698622 0.018826315 -0.13244095 -0.217886 0.5565677 0.10972277 -0.11934099 0.07826963 -0.082494505 -0.41686067 -0.27299607 0.43819416 -0.3465664 0.5495416 0.19661212
entity28 0.38121188 -0.24791269 0.24758719 0.04096039 -0.033677757 -0.23375402 -0.083993785 0.35117045 -0.20208211 0.2840497 -0.82815903 -0.20727853 0.6055349 0.24256052 -0.54204607 0.116934724 0.04503531 0.0066485116 -0.1337817 -0.32806107 0.25958204 0.007915384 -0.4216684 0.23088948 -0.5607202 0.7238937 0.10088966 0.44848695 0.0760282 0.3183477 -0.10758209 -0.60687405 0.14380468 0.228302 -0.23328029 0.08799431 -0.088314734 0.1085504 -0.24419223 0.5692283 0.2696497 -0.11730793 0.15856756 -0.0779461 -0.3180905 -0.08777496 0.6524828 -0.27508497 0.46653807 0.067354746
specification 0.32584167 -0.22513035 0.1181478 0.11245968 0.003339874 -0.17108434 -0.10232031 0.32325613 -0.14754577 0.15470393 -0.58854395 -0.07087393 0.468835 0.21670629 -0.5079164 0.1441679 0.080507316 0.08176421 -0.118688285 -0.385279 0.3676073 0.003336603 -0.18023035 0.16971546 -0.4989959 0.41219035 0.21960345 0.49560368 0.054118793 0.44264942 -0.08686381 -0.43857917 0.05090528 0.18396078 -0.28010848 0.10786189 0.12850887 0.11189335 -0.11395352 0.42613026 0.27612853 0.09078571 0.30398786 0.13390356 -0.37280944 0.06548775 0.58519083 -0.18061158 0.6314195 -0.07144556
execution 0.2830672 -0.28661618 0.01701728 -0.012933831 -0.14151928 -0.014745256 -0.030921845 0.44581023 -0.13386495 0.03922306 -0.58111113 -0.26090688 0.57741934 0.27276537 -0.33259752 0.23276801 -0.044974353 0.07245515 0.08583993 -0.49975732 0.2935006 0.13130379 -0.54720956 0.28421342 -0.37627923 0.17050855 0.42003542 0.45451096 0.27162609 0.2501119 -0.10183246 -0.6017955 0.1746493 0.14899471 -0.355873 0.0121140685 0.11662216 -0.0024228087 -0.28755227 0.6801113 0.02872793 -0.0057812952 0.29150352 0.054542914 -0.112586774 -0.2849552 0.6308886 -0.22126211 0.44394267 0.19840424
spatial 0.25166723 -0.38708264 0.14174531 -0.11919056 -0.16189826 -0.16770098 -0.21751072 0.766942 -0.33330444 0.56018275 -0.92271495 -0.27401933 0.4395732 0.1415735 0.033211324 0.24715142 -0.0027603572 -0.38680404 -0.116201825 -0.7495611 0.077361695 0.24619582 -0.68918097 0.15068884 -0.75568545 0.85460347 0.4272556 0.5834077 0.5414484 0.19933245 -0.27134097 -0.859435 0.4287769 0.25449157 -0.46870166 -0.06010157 0.09933033 -0.37495005 -0.21363115 0.27272928 0.079862334 -0.25986123 -0.14429429 -0.002981612 -0.29129717 0.21248029 0.7915626 -0.5289234 0.75925314 0.14375377
entity29 0.19973762 -0.22180423 0.13499841 0.07391394 0.09783589 -0.045493107 -0.17980453 0.5005494 -0.07894191 0.31123877 -0.6158916 -0.078918815 0.4043372 0.25036722 -0.45189518 0.14498506 -0.04391605 0.030841516 -0.18604168 -0.2989566 0.38333717 0.019176003 -0.10900895 0.17764089 -0.44697532 0.3181994 0.29156953 0.52013904 0.08692186 0.38639486 -0.05254143 -0.50602186 -0.014431081 0.31500596 -0.21865323 0.09917215 0.1773911 -0.06201101 -0.07899914 0.42912385 0.32329875 -0.10136388 0.259782 0.2229292 -0.18898067 0.14996064 0.514371 -0.21779174 0.41014186 0.07183602
is 0.3620129 -0.3841737 0.037961464 0.51573306 -0.2335838 0.09133044 0.32498884 0.44618756 0.1618781 -0.37540334 -0.83425856 -0.19861491 0.5923517 0.36476874 -0.7603475 0.51946187 0.079863675 -0.08037845 0.24996853 -0.71732026 -0.1348089 0.26232687 -0.48942775 -0.026748128 -0.06224441 -0.010526303 -0.21683651 0.12337181 0.15031217 0.6605566 -0.30531228 0.028545406 -0.2365141 -0.43475643 -0.52539104 0.20182987 -0.56299514 0.21551938 -0.5390169 0.4777097 0.26483366 0.42031622 0.5824172 0.094163336 0.119055554 -0.087634265 0.12448211 0.13520402 0.49416357 -0.4638069
presented 0.5211539 -0.3302192 -0.046587113 0.028293837 -0.08330405 0.15305553 0.50995165 0.17618455 -0.20244925 -0.087431155 -0.3513401 0.16289684 0.21364252 0.13491645 -0.3199122 -0.28603902 0.20242767 0.20316172 0.26712278 -0.52479345 -0.0030913847 0.5656445 -0.30623966 0.19791298 -0.3487842 0.13914005 0.2861919 0.5720836 0.24599312 0.6219943 -0.50302994 -0.70398724 -0.05004717 0.03920526 -0.19147076 -0.057328533 -0.17049447 0.30479872 -0.20370336 0.7693484 0.28654653 -0.19607615 0.4402877 0.055872947 0.005594839 -0.37925148 0.52795225 -0.58170676 0.36180127 0.051803343
use 0.47767437 -0.2621169 0.12025585 0.079391725 -0.18167992 0.17158006 0.3570524 0.32839462 -0.27564248 -0.15986475 -0.43528333 0.078920804 0.36886 0.3736872 -0.28383154 0.15843028 0.008925043 -0.025976395 0.4375647 -0.52691776 -0.10216029 0.2564074 -0.14721625 0.0104685025 -0.20047884 0.123088464 0.19613683 0.39069813 0.11145193 0.5013121 -0.32545406 -0.7075503 0.40482792 -0.13759734 -0.26059005 -0.0074172625 -0.06542988 0.3814038 -0.052743245 0.6898688 0.10350807 0.13547705 0.41654828 -0.06449913 -0.22922258 -0.13018525 0.52719873 -0.1207098 0.45242766 -0.18379794
entity30 0.26595163 -0.16360742 0.019582499 0.017337717 -0.11583687 0.06350666 0.11005143 0.43926567 -0.16009289 0.030298736 -0.41793486 -0.12941393 0.34618673 0.20730409 -0.20512429 0.21903475 -0.097341895 0.045746356 0.10939581 -0.48395443 0.11059135 0.27121946 -0.22686917 0.10369536 -0.31017172 0.042804543 0.2908857 0.3707385 0.19272463 0.41450092 -0.37255332 -0.4816698 0.11481786 0.04830676 -0.23457368 -0.049498472 0.0024868639 0.00412428 -0.19502819 0.5947491 0.10221827 0.065694705 0.25896105 0.2500804 -0.04797252 -0.17597748 0.5704317 -0.32131106 0.35479993 0.06272479
databases 0.0014209735 -0.43893328 -0.10874738 -0.58362925 0.0072003603 -0.05098259 -0.68982464 1.1216606 -0.59506077 0.5562806 -1.1348734 -0.8440995 0.6225583 0.19520494 0.49073344 0.7522163 -0.18219449 -0.2300196 -0.2567689 -1.2775565 0.4521011 0.1968593 -0.95470613 0.15475336 -0.7059723 0.738856 0.69508624 0.5247489 0.78332394 0.07939231 -0.6307976 -0.69248986 0.7370486 0.39121798 -0.4330415 -0.500341 0.44742087 -1.0963677 -0.19150114 0.34191898 -0.3166079 -0.06318862 -0.28008866 0.55810046 -0.5788539 -0.13201693 1.2109325 -0.5284348 0.9774278 0.0076208655
entity31 0.4168412 -0.44207004 -0.088828646 -0.26491666 0.08629421 0.46975422 0.214003 0.86724085 -0.16157348 -0.19581997 -0.55813956 -0.13129197 0.3375809 0.2960946 -0.16976623 -0.023365142 0.5196504 0.07615869 0.13009492 -0.6637623 0.24258587 0.34384432 -0.42478704 0.27525192 -0.6054146 -0.17416054 0.098464705 0.45369664 0.3500465 0.578141 -0.070796944 -0.5938886 0.21822137 -0.047742102 -0.7563704 0.053948827 -0.09504528 -0.17126423 0.07459085 0.7412261 -0.11358469 -0.2177089 0.33353668 0.16054995 0.43450466 -0.42227122 0.3285869 -0.33189955 0.2722969 0.23393433
structures 0.2662959 -0.2959581 -0.07368488 -0.097533494 -0.15814662 0.1458761 0.2192878 0.554369 -0.2189715 0.13403554 -0.59956 -0.19221056 0.45000288 0.17981789 -0.27547908 0.21109553 -0.045603134 -0.19479682 0.10102703 -0.6074149 0.1283561 0.5744365 -0.4274589 0.2608479 -0.36496243 0.2015618 0.5079595 0.33696383 0.25744623 0.30703917 -0.44604892 -0.48839524 0.14988518 0.18404882 -0.15373085 -0.075172916 -0.16661225 -0.1609462 -0.15281178 0.7486545 0.095184796 -0.05424883 0.22865435 0.13973683 0.009298204 -0.22777282 0.53983235 -0.32451144 0.09503114 0.23522092
data 0.18552794 -0.42744657 -0.68404174 -0.56024736 -0.05294168 0.82587034 0.8090466 1.0157758 0.38790497 -0.24884015 -0.34736842 -0.7739226 0.6559266 0.55118805 -0.64950746 0.54015034 0.30890763 0.31423515 0.18241109 -1.1023331 1.0903535 0.6260674 -1.1877961 0.94303757 -0.24566285 -0.9854223 0.51070964 0.9515524 0.2445273 -0.21532075 0.3322943 -0.8669458 0.106537335 0.4320752 -1.4116831 -0.26749277 -0.35018164 -0.21168274 -0.15096575 0.36138007 -0.97700465 0.09899052 0.42786956 0.7717461 0.5414474 -0.94330823 0.65334773 -0.37900162 0.43876535 0.29603326
focus 0.34739667 -0.1725682 0.025908524 0.0019015495 -0.4606136 0.048674468 0.16805592 0.25773534 -0.1774239 -0.073896654 -0.27639967 0.038775515 0.37840322 0.08261102 0.012198373 0.13352622 -0.12363814 0.19981226 0.2813151 -0.58745044 0.0327091 0.2991459 -0.16128464 0.049386248 -0.413361 -0.1418621 0.36175227 0.5524851 0.21663073 0.49661356 -0.38889918 -0.42756537 0.10444338 -0.26753363 -0.31572974 -0.036346465 -0.036215402 0.28887776 -0.32456076 0.42873332 0.31248882 0.27348885 0.43501022 0.23744482 0.003454242 0.07385928 0.74820846 -0.5333898 0.6852307 -0.100435
hierarchical 0.14255083 -0.2694898 0.07061165 0.017941 -0.13054322 -0.041511178 0.16080214 0.34955153 0.019064922 0.19647898 -0.5274138 -0.036758844 0.41594276 0.14550129 -0.40849674 0.08095448 -0.028441824 0.04726891 0.07709315 -0.45370355 0.254099 0.34309214 -0.31017384 0.27512443 -0.55868804 0.12718461 0.43529442 0.534579 0.23158833 0.4324641 -0.16408268 -0.49786568 -0.0024484273 0.07314219 -0.28811258 0.055210724 -0.117103055 0.16919978 -0.2041056 0.52350974 0.26867887 -0.053269885 0.38656318 0.10395336 0.08736859 0.035353247 0.5429624 -0.44014505 0.3084946 0.1449159
including 0.66527283 -0.02063184 0.044550724 0.13992402 -0.13023774 0.60412276 0.42349795 0.69971174 -0.12181546 0.5404575 -0.6175202 -0.57854134 0.6612385 0.26947433 -0.39259982 0.40341926 -0.6683354 -0.024199497 0.112084374 -0.5876104 0.30444768 0.6634656 0.14607076 0.5483073 -0.22829667 -0.17781183 0.41744605 0.65145713 0.33421132 0.4770862 -0.88301146 -0.8813963 -0.2497322 1.1232126 -0.07749135 -0.7114286 0.27105793 -0.34722614 -0.3058497 0.17999114 -0.031680368 -0.25571337 0.22718228 0.09816442 -0.005296105 -0.3016782 -0.16185355 -0.5879466 0.61138076 0.5777509
number 0.29655373 -0.16530341 -0.1849568 0.36669213 -0.007011876 0.26236856 0.31699413 0.5247457 -0.23965311 -0.34191394 -0.3159791 0.10969445 0.20254971 0.29575804 -0.5051512 0.18505502 0.14845644 -0.04986522 0.42731488 -0.44473362 -0.2894539 0.4762601 -0.3354456 -0.10872964 -0.3708797 0.32379746 0.21679978 0.38497245 0.030592695 0.43616173 -0.28404117 -0.6722853 -0.088451035 -0.06817336 -0.22259615 -0.077283375 -0.15500043 0.0536255 0.11859852 0.80000234 0.0014815023 0.023920808 0.37908247 0.13911085 -0.14574167 -0.3990702 0.50698984 -0.2931484 0.02194154 0.41529205
which 0.0696346 -0.26547676 0.36361375 0.022963554 0.04510036 -0.149748 0.42669657 0.31202686 -0.084057815 -0.07345635 -0.37343338 0.049905878 0.0022174236 -0.014303686 0.13345858 0.53017104 -0.11761212 -0.05713965 0.1121994 -0.19458094 -0.35069257 0.16874553 -0.39283398 0.13360439 -0.59440315 0.15205099 0.10989684 0.27426404 0.29596102 0.40965515 -0.71868694 -0.77210426 0.021273585 0.036327306 -0.29610026 0.04590419 -0.19936496 0.48253766 -0.36112642 0.7202204 -0.024873367 -0.028824817 0.222196 0.2773129 0.25953287 -0.7352926 0.6437632 -0.71524644 0.087241195 0.41704217
sort 0.27493227 -0.121251315 0.039475165 0.18409836 0.005774625 0.13568135 0.20402521 0.4376517 -0.19735852 -0.0797831 -0.3876651 -0.042569097 0.21619166 0.2510146 -0.31664243 0.30228788 -0.081120625 0.0026986646 0.12327061 -0.4157948 -0.08051816 0.2621686 -0.13485345 0.0036069937 -0.25417972 0.099360704 0.16624412 0.32082853 0.1394674 0.50146186 -0.3656221 -0.49909255 0.04999078 0.03560846 -0.13860239 -0.039926257 0.030670693 0.055873744 -0.18059547 0.62699085 0.073016986 0.11619852 0.23453185 0.27073613 -0.069231614 -0.18183339 0.50008947 -0.24355705 0.32525167 0.09545804
respect 0.3938126 -0.2261818 0.065126605 0.21310951 0.0062352074 0.21372582 0.32959062 0.42405656 -0.29459995 -0.120806 -0.39286214 0.030150646 0.21076521 0.33629864 -0.51012117 0.22592352 0.021453522 0.01715664 0.24923237 -0.30345467 -0.21366599 0.36649513 -0.15165113 0.103756614 -0.27895632 0.16532311 0.06707174 0.36393422 0.029760255 0.5152407 -0.29100308 -0.6574036 -0.009475626 0.036076784 -0.12814465 0.051344622 -0.037819717 0.15764298 -0.12926191 0.72102135 -0.061070018 0.0022598018 0.27742553 0.19749641 -0.13019869 -0.28627923 0.448524 -0.28852966 0.23258458 0.17521374
space 0.16457659 -0.18289179 0.04607902 0.047714017 0.07800632 0.14443883 0.15239552 0.55543506 -0.11441349 0.1635726 -0.5141942 -0.16610405 0.26003584 0.20467417 -0.14409256 0.3458885 0.07383298 -0.06841428 -0.11377996 -0.6488788 0.12479678 0.42792374 -0.35199854 0.31517994 -0.5471318 0.060649715 0.39650825 0.26376474 0.30559975 0.26920494 -0.37861052 -0.46703845 0.064302 0.22296695 -0.20313355 -0.071597636 -0.036423612 -0.06834657 -0.18027689 0.6371324 0.0032413288 -0.016007876 0.32321644 0.20395204 0.10935926 -0.26134416 0.5966225 -0.29576626 0.29961026 0.3869666
by -0.31867567 0.07995916 0.07696476 0.2050158 0.25439364 -0.009117239 0.39030525 0.61821353 0.048612565 -0.19660866 -0.6260235 -0.008806963 0.06438724 0.09137409 -0.44274846 0.27014446 -0.06463025 0.120171845 0.106843114 -0.38175234 -0.30394933 0.15596652 -0.17245665 -0.19232672 -0.6063826 0.10139967 0.032873895 0.077171855 -0.0625696 0.5740199 -0.31269613 -0.19424805 0.2691525 -0.31344008 -0.0067268303 0.19347224 -0.1581211 0.013436966 -0.25189066 0.81828046 0.20622998 -0.031591963 0.104030214 0.26987004 0.08953006 -0.048665885 0.8791404 -0.45073766 -0.23262942 0.440735
it 0.25417405 0.0847203 -0.12524784 0.7201839 0.24859318 -0.35024673 0.4370378 0.31869373 -0.26112184 -0.53343844 -0.53733236 -0.34414658 0.13590845 0.15047263 -0.065805495 0.31096587 -0.25346664 0.4529092 0.22800218 -0.24832213 -0.4439462 0.023179209 -0.1764779 0.044853173 0.007988962 0.05889648 -0.06238741 0.062267788 0.016527629 0.4569167 -0.70716655 -0.6366365 -0.021294702 -0.20989534 -0.6532557 -0.10622084 0.018362142 0.41060868 -0.6209688 0.56947523 -0.14890523 -0.08633685 0.06656523 0.44204956 -0.5850465 -0.48754102 0.5962717 -0.42957476 1.0735387 -0.36458865
such 0.46387336 -0.1638999 -0.2511286 0.23180814 0.25632185 0.34379873 0.28360632 0.6663024 0.09848034 -0.052764826 -0.5562343 0.11615138 0.08841733 0.33271372 -0.25216964 0.014422247 -0.14879307 -0.30054775 0.43786442 -0.5832102 -0.027189467 0.0932462 -0.5472414 -0.50620604 0.27031726 0.57645386 0.037392024 0.2335908 0.39339077 0.7078613 0.14709227 -0.9280972 0.412541 0.13274723 0.20417693 -0.48627403 0.17853495 -0.58296597 -0.09854056 0.7300871 0.31909803 -0.22254516 -0.30194414 0.057524938 -0.06224162 -0.57449913 0.7700597 -0.0062778317 0.9418679 0.13190095
techniques 0.69905585 -0.38851193 -0.00087625167 -0.116613016 -0.26893988 -0.05345759 0.48012137 0.800732 -0.12330474 0.06709608 -0.7207708 0.009622624 0.40236765 0.54370564 -0.23970242 0.0024049731 0.08377479 -0.2561307 0.18410848 -0.28652707 0.2871131 0.47737035 -0.26745334 0.12234435 -0.37747708 -0.027618473 0.38789263 0.549721 0.3727995 0.174531 -0.6688196 -1.0125912 0.31449807 0.1601709 -0.54610455 0.028767157 0.10325475 0.06562763 -0.156952 0.41602892 0.27517098 -0.13141279 0.13173479 -0.21547166 0.03378943 0.016610445 0.19340968 -0.1567229 0.51798403 -0.15034604
are 0.12662442 0.042347133 0.08061741 0.22601248 0.024177123 0.8276885 0.32191333 1.0946952 -0.14533244 -0.29494026 -0.5258382 0.16412704 0.46111432 0.5746916 -0.4866627 0.12473712 0.0009611847 -0.25385112 0.23125659 -0.5249052 -0.13328084 0.82278484 -0.1524796 -0.14840537 0.00019273648 -0.14368539 -0.15128231 -0.24997321 0.13015302 0.47908223 -0.7305424 -0.63765365 0.19505054 -0.31792092 -0.09151406 0.19366351 -0.2718131 -0.33804268 0.17300314 0.8654433 0.43491504 -0.04090397 0.49719527 -0.15992758 0.20696537 0.026956128 0.41036072 0.10529566 0.2923943 -0.18213418
known 0.28929764 -0.1700142 -0.24703743 0.22436385 0.022238143 0.23854885 0.18865721 0.44961154 -0.10292022 -0.2630667 -0.43313113 -0.052363396 0.23347665 0.4492921 -0.30137748 0.24733496 -0.040128242 0.045546137 0.26343772 -0.5573504 -0.014285262 0.14931874 -0.50684285 -0.25294888 0.0970736 0.27045092 0.122487105 0.25514293 0.19433756 0.5121688 -0.080141984 -0.5370178 0.2786212 -0.12087872 -0.072782665 -0.09852378 -0.035327364 -0.020545365 -0.22815868 0.8308197 -0.0021677362 0.045946054 0.031678967 0.16936062 -0.14009343 -0.49286124 0.84574807 -0.10887592 0.50054234 -0.061022654
as 0.24507308 0.177608 -0.19128148 0.40303898 -0.10446716 0.49995828 -0.1255012 0.71324676 0.3722456 -0.16693304 -0.5336522 0.055113602 0.10542522 0.95764804 -0.20765088 0.5683695 -0.57574266 0.50252634 0.43142244 -0.4726577 0.3309672 -0.025289552 -0.8397779 -0.71770144 0.0019341037 0.38105676 0.12357092 0.35781977 0.260487 0.45467436 0.00622659 -0.46751374 0.3767535 0.03319114 0.40616184 -0.041423205 -0.19735456 -0.34015542 -0.24373838 0.6141061 0.0002363641 -0.20879275 -0.17455289 -0.26739144 0.09685624 -0.55105 1.1351113 0.085769534 0.53714067 -0.0058714235
indexing 0.24789956 -0.34669614 0.13303861 -0.20232937 -0.17573534 -0.1495256 0.09388063 0.44335812 -0.0972919 0.22069171 -0.55056214 -0.030072048 0.38910148 0.20771408 -0.094154865 0.0058406014 0.1610259 -0.024507085 -0.0061394954 -0.72984344 0.50274295 0.2591806 -0.27313444 0.28605327 -0.60493386 0.18267989 0.58260906 0.4558927 0.39417526 0.2762097 -0.26036942 -0.6082034 0.26010287 0.039348587 -0.40833133 0.045801878 -0.027078452 0.13028567 -0.15884206 0.5370398 0.40204987 0.022320254 0.44408244 -0.0045054 0.033471454 0.031108238 0.58386403 -0.42197734 0.53470075 0.010365162
methods 0.4912952 -0.31206644 0.09090229 0.09524521 0.06122937 -0.046311103 0.108185425 0.53550684 -0.007481858 0.035158534 -0.51741713 0.18434775 0.20778927 0.5864823 -0.16639219 -0.26765487 -0.05038898 -0.030276729 0.3404673 -0.31377316 0.26913264 0.14921391 -0.06979297 0.042710055 -0.2784133 0.07171248 0.2658988 0.41370824 0.30645058 0.47057715 -0.2862675 -0.9499316 0.17440267 -0.17363718 -0.27425054 0.0667516 -0.031242125 0.2290479 0.018789757 0.6957614 0.48874956 -0.26474342 0.33652005 -0.078621775 0.017299099 0.0019570896 0.4701376 -0.21300998 0.55997705 -0.15644658
principle 0.26558667 -0.16113058 0.05590336 0.15294388 -0.024778182 0.041082736 0.12726815 0.3750387 -0.13912253 -0.02996345 -0.4215158 0.021942444 0.25427487 0.26813227 -0.32174706 0.21818146 -0.05458723 0.057264376 0.09591476 -0.3455704 0.0017921784 0.17859234 -0.09701391 0.06562314 -0.30059484 0.10897516 0.18392344 0.38694608 0.08493334 0.49266413 -0.27603993 -0.49452654 0.04703528 -0.0077411765 -0.20036131 0.054335818 -0.015323718 0.14251864 -0.15948619 0.57685596 0.14341822 0.06398201 0.28776234 0.2583008 -0.08872121 -0.07300915 0.5709791 -0.32282528 0.3982211 0.027980339
recursive 0.20117615 -0.17071381 0.06917639 0.04112785 -0.08132011 0.03724453 0.036179353 0.38496676 -0.10521197 0.0800047 -0.47910637 -0.08195143 0.38143596 0.21292247 -0.30680302 0.1984232 -0.09470984 0.07596928 0.07850204 -0.38581708 0.11954116 0.21394894 -0.21598953 0.16789615 -0.3774797 0.10984015 0.2853041 0.43414903 0.11473256 0.47627282 -0.2560524 -0.41500923 0.020269977 0.06844536 -0.19579574 0.02740185 -0.017530331 0.085367836 -0.19188613 0.56572783 0.17931671 0.054306425 0.31312236 0.25207138 -0.026315812 -0.05886041 0.5572099 -0.34457162 0.31341982 0.08342503
decomposition 0.18445195 -0.19447193 0.108138606 0.12981848 0.02894566 0.023285937 0.017816383 0.46025965 -0.06825 0.1381161 -0.5089212 -0.028336784 0.2934647 0.26857883 -0.39921066 0.16621873 -0.07546074 0.039116718 0.0061245654 -0.29523355 0.13300519 0.15192021 -0.12914607 0.13426895 -0.34835595 0.16879497 0.22136448 0.421547 0.082833655 0.4540893 -0.15373515 -0.4863608 -0.010423651 0.103103146 -0.20058817 0.065852866 0.0032389325 0.07171894 -0.12769336 0.5524443 0.22637598 -0.053140327 0.25792888 0.23785377 -0.060653057 0.033208534 0.521999 -0.28763616 0.31070846 0.08092501
they 0.6582308 -0.03725895 -0.41381657 -0.1838837 0.16030774 0.5867342 0.6818242 0.9067248 -0.25726384 -0.44072047 -0.48589125 -0.098964185 0.07633202 0.4892713 -0.020450417 0.2458698 -0.26271877 -8.6634995e-05 0.48479086 -0.2674758 -0.3783154 0.33731255 0.11124216 -0.16794865 0.2610614 -0.85754216 0.38079977 0.1482042 0.22680202 0.75023896 -0.98735386 -0.51018745 0.18099084 -0.23087782 -0.00067576714 -0.12790558 0.20746931 -0.13234587 -0.262304 1.155999 0.066469304 0.12297893 0.37766656 0.6076286 0.33586758 -0.57749754 0.5587568 -0.12072272 0.06271227 0.12130736
because 0.34449962 -0.10218812 -0.21714453 -0.07472159 0.036411695 0.40823933 0.57200813 0.7473675 -0.25575176 -0.31859276 -0.45788562 -0.16964915 0.23893444 0.36629248 -0.29541445 0.43353996 -0.1115248 0.024221294 0.37515864 -0.47861233 -0.161624 0.5209275 -0.38901913 0.12353095 0.046178784 -0.42172685 0.33527073 0.24513799 0.28644523 0.53804004 -0.74288565 -0.41017848 0.23669952 -0.32342762 -0.044095177 -0.021458391 -0.0479984 -0.06331183 -0.34658146 1.1546974 -0.0784034 0.26500633 0.22410989 0.4341245 0.18821427 -0.57062334 0.6349205 -0.14176492 -0.11127576 0.13433638
compact 0.1897909 -0.16540325 0.10241739 0.11646544 0.015585152 0.07372118 0.1557999 0.4846278 -0.09593708 0.028392786 -0.46588388 0.0035168885 0.24014483 0.26720187 -0.33135116 0.25027186 -0.07835275 0.03012247 0.10102499 -0.32600993 0.0076802196 0.23648551 -0.08792053 0.05952259 -0.34110782 0.06672789 0.21431638 0.36569896 0.0988458 0.45917392 -0.2709195 -0.47908103 0.028822597 0.038807444 -0.16687453 0.046122964 -0.0033326223 0.11041788 -0.1290479 0.602984 0.15604548 0.041511137 0.29133582 0.28634453 -0.012717905 -0.06415466 0.5192016 -0.29838327 0.2662904 0.1387358
entity32 0.24817376 -0.15851991 0.03494836 0.18040417 -0.016078882 0.096549205 0.12984626 0.47318387 -0.17580982 0.005530984 -0.41031012 -0.011293455 0.2389192 0.30568963 -0.352956 0.24429482 -0.039385285 -0.0048938477 0.079606004 -0.34974474 -0.014346238 0.21416132 -0.17616051 0.032666158 -0.31713375 0.18107101 0.20018956 0.43009973 0.13957341 0.4867991 -0.28753945 -0.550402 0.07463435 0.014940338 -0.19694789 0.021868126 0.07777631 0.080987215 -0.14130905 0.5614892 0.07647229 0.07103427 0.22869873 0.23473486 -0.11112436 -0.07084386 0.5116116 -0.26098204 0.3453241 0.036085732
well 0.2855025 -0.21568926 -0.4330984 0.19435744 0.08007549 0.27701065 -0.045359004 0.71162033 0.1617268 -0.11581647 -0.71151507 -0.23485972 0.39455128 0.6177181 -0.22651835 0.04947899 -0.10163896 -0.10964202 0.40657252 -0.74417776 0.23325436 0.08181427 -0.80784094 -0.33508503 0.33214927 0.3052476 0.31511042 0.3500999 0.5567342 0.59747446 0.2719753 -0.7427081 0.52814656 -0.16123216 -0.18872114 -0.37540588 0.09894068 -0.24192795 -0.2786147 0.8238623 0.06262518 -0.13376088 -0.18818118 0.111378096 0.042174 -0.6634197 0.9908818 0.18811488 0.7013561 -0.1100653
time 0.32325333 -0.4429456 0.17240104 0.12263652 0.016748814 0.22999881 0.14731303 0.4731912 0.028084941 0.24864407 -0.9460235 -0.43587357 0.35183114 0.3461017 -0.26829335 -0.28524306 0.09647701 0.04197369 -0.045547057 -0.62290573 0.066327445 0.45196688 0.14411907 -0.091276065 -0.54806465 -0.25886172 0.28942135 0.22543867 0.03274582 0.7998527 -0.7075938 -0.24332117 -0.084270656 0.610016 0.13859253 -0.101356074 -0.12153072 0.13708594 0.045122806 0.703381 -0.009160077 -0.03771776 0.5616715 0.015934436 0.37803918 -0.23200557 0.24490768 -0.43737563 0.26612926 0.2464964
also 0.3651952 -0.035308894 -0.15396935 -0.0044239406 -0.17472401 0.10557199 0.52866685 0.40123573 -0.24683186 -0.23172322 -0.12208436 -0.06833952 0.1172291 0.09406691 0.09840376 0.23964873 -0.18153523 0.08551174 0.39074138 -0.8186732 -0.04931943 0.2417102 -0.42770442 -0.14718314 -0.10612318 -0.26071686 0.3705119 0.3936398 0.4569178 0.6555284 -0.6504324 -0.5276642 0.32803735 -0.27110255 -0.3090172 -0.3130231 -0.07154211 0.19634408 -0.34068337 0.6523609 0.16269574 0.45035002 0.14378817 0.41009384 0.14684097 -0.42161587 0.7275786 -0.2544047 0.50447524 -0.021674989
operations 0.6575181 -0.21851604 0.21236785 0.28287292 0.08977927 0.07971142 0.38353094 0.44452158 -0.45174655 -0.23101455 -0.57845247 -0.09793662 0.30904788 0.41857836 -0.26208657 0.19077876 -0.10726631 -0.051638853 0.34103018 -0.30902326 -0.40802804 0.05434244 -0.20514685 0.13511004 -0.15839441 0.42736885 -0.24910107 0.14875694 0.081865266 0.36566928 -0.42623642 -0.9068878 0.21698606 0.11784576 -0.23060608 -0.04407086 -0.10187301 0.27730536 -0.29335347 0.83768845 -0.0353001 -0.22067423 0.07663468 -0.032013148 -0.3182499 -0.4144762 0.53870916 -0.39683762 0.6381778 0.26899108
search 0.2795949 -0.30132213 0.18657255 0.009862921 -0.034890283 -0.079322405 0.06742324 0.4376742 -0.090076685 0.09905276 -0.58003056 0.013144968 0.38051176 0.4038523 -0.35778573 0.07484182 0.06417513 0.0536035 0.05139207 -0.33026657 0.23746201 0.1581182 -0.27617273 0.21260588 -0.44016814 0.1955179 0.2676189 0.35536417 0.13412859 0.44671503 -0.12052299 -0.60833716 0.13003372 0.003639202 -0.24190873 0.17812403 -0.03221374 0.2580847 -0.114512034 0.6271177 0.22876386 -0.1135655 0.35075265 0.08219366 0.021806046 -0.04430134 0.53514457 -0.22091252 0.38860577 0.041152738
examples 0.6441557 -0.27245283 0.1251246 0.18402798 0.0019608925 0.52701813 0.56370896 0.47160858 -0.3137972 0.23622355 -0.5271888 -0.1979873 0.29062432 0.24045026 -0.14688157 -0.10704656 0.04597044 0.22719228 0.20914252 -0.89982164 0.19949427 0.6594154 0.42169732 0.16795613 -0.4782772 0.089473315 0.12630153 0.36271125 0.36789337 0.6265832 -0.861686 -0.92056847 -0.39872202 0.7888875 -0.09714659 -0.42510667 0.06372714 0.056234296 -0.19634964 0.4431767 0.36157754 -0.25653705 0.5919918 0.03217081 -0.030338693 -0.22329652 -0.115473226 -0.6448907 0.76248795 0.29047322
given 0.30837652 -0.082814954 0.020875212 0.30625322 0.098536514 0.18390648 0.3480633 0.38974738 -0.1795279 -0.2324725 -0.22824797 0.21832716 -0.09116024 0.29041085 -0.26984397 0.20138301 -0.047549345 0.0653255 0.2864403 -0.29233626 -0.2709881 0.36510143 -0.014378465 -0.07200342 -0.2234666 8.9059205e-05 0.037256945 0.4095189 0.12441326 0.6491185 -0.5001115 -0.5837793 -0.031942297 -0.15333225 -0.13847628 -0.07739376 -0.052609082 0.18117362 -0.071353436 0.7789204 0.105097674 0.02319043 0.27065146 0.38759243 -0.026913553 -0.36368388 0.5267598 -0.4465152 0.1758943 0.10449853
these 0.530646 0.022467295 -0.05532602 -0.018371928 0.005134396 0.44365135 0.5560903 0.5798616 -0.24615256 -0.385361 -0.2741759 0.20851573 0.015757104 0.35632923 0.1578136 0.122986965 0.013226802 -0.059514105 0.24395211 -0.34266505 -0.2243099 0.2562458 -0.16626737 -0.22965309 -0.23500279 0.059515752 0.12233294 0.1969389 0.2020821 0.5181364 -0.593147 -0.7417021 0.23110475 -0.104846396 0.009807975 -0.10796464 0.075059235 -0.11213841 -0.075778395 0.8594595 0.25187218 0.04362827 0.2643615 0.23974834 0.098318845 -0.33079207 0.6889216 -0.3348858 0.5078127 0.14398779
representation 0.30367884 -0.33271003 0.10475216 -0.03798257 -0.1281007 -0.07466341 0.27968338 0.40662625 -0.13743483 0.080968186 -0.59909177 -0.030257525 0.371713 0.27314466 -0.24645165 0.18629435 0.11186493 -0.07001022 0.15732509 -0.69521034 0.016588075 0.45487705 -0.48692337 0.20902668 -0.55432904 0.34134343 0.27017072 0.21166286 0.33561796 0.23562205 -0.32183966 -0.58089197 0.21747738 -0.0068647536 -0.17008677 0.099644504 -0.2836503 0.18312603 -0.26761603 0.7254562 0.105130985 -0.048851304 0.326457 -0.18750505 0.048536796 -0.16670024 0.667299 -0.41391027 0.48434007 0.21271525
different -0.01504544 -0.28501603 -0.43708235 0.32001516 0.06000408 0.44769537 0.56110746 0.87446916 -0.16257305 -0.33970967 -0.34278566 -0.14369401 0.08155465 0.010584347 -0.05619781 0.36848944 0.09587141 0.0067299567 0.25332862 -0.70612866 -0.109546684 0.68280184 -0.55961734 -0.069007225 -0.46349618 -0.071967624 0.67665964 0.094867095 0.49782866 0.22314717 -0.50495744 -0.32556352 -0.053678054 -0.12559582 -0.4856301 -0.057197735 -0.28713703 -0.30363604 -0.08500169 0.9886113 0.053362798 -0.012168771 0.14450331 0.6398753 0.3515628 -0.24135326 0.48236996 -0.37825444 0.028010858 0.26597977
types 0.10919218 -0.26518354 -0.31342247 0.31353855 0.08139893 0.16838454 0.30395687 0.57169676 -0.38837528 -0.14861886 -0.35986048 -0.2167903 0.22543524 -0.06296209 -0.02801476 0.27904338 0.020395905 -0.029911656 0.13231483 -0.7227142 -0.083142705 0.23230621 -0.53895575 -0.08584187 -0.4531118 0.4087916 0.6432705 0.13536721 0.521206 0.21356943 -0.39599323 -0.45650047 0.09761922 0.063355096 -0.36996144 -0.07677163 0.04791347 -0.33581764 -0.19102079 0.75530565 0.04727056 0.27303913 0.09386842 0.41080683 -0.054458715 -0.19454852 0.62831676 -0.3312081 0.4668309 0.201331
regions 0.20258671 -0.17647289 0.045468554 0.24825974 -0.026085591 0.26359215 0.38235468 0.51375526 -0.13974379 -0.123977795 -0.35589752 0.08229841 0.052829213 0.34213302 -0.34535074 0.26636282 -0.065446205 -0.1486759 0.23106603 -0.32991362 -0.40179577 0.43389934 -0.19824758 -0.108699106 -0.26250744 0.24936199 0.08127207 0.28216192 0.10408695 0.39127088 -0.26593465 -0.67131954 -0.019027097 0.023197085 -0.21451984 -0.03400965 -0.25437215 0.04324406 -0.08212771 0.80958945 0.04801577 -0.19288251 0.18127072 0.27993864 0.075917736 -0.16794392 0.5578074 -0.44300404 0.14041083 0.24246524
points 0.047685128 -0.15789293 0.15447523 0.38110754 -0.0888958 0.27816048 0.4084692 0.5970287 -0.13197869 -0.07721308 -0.34687352 0.19442508 0.030938737 0.32835868 -0.5584062 0.37629846 -0.15766753 -0.1966198 0.1361689 -0.24347052 -0.5980564 0.47226185 -0.22739273 -0.10097317 -0.3320629 0.26072028 0.070186265 0.2822562 -0.12056302 0.3101748 -0.03805517 -0.5999178 -0.17526016 0.03285892 -0.28220508 0.1169039 -0.4110568 0.24011263 -0.073065616 0.8462336 -0.11592294 -0.22200651 0.20733012 0.42180076 0.1379292 -0.017948844 0.6792131 -0.55224335 -0.11150273 0.48169145
lines 0.17479429 -0.12467089 0.027504742 0.23195556 0.04575766 0.197205 0.18867894 0.49297374 -0.13687411 -0.0633228 -0.40389004 -0.025830105 0.124801666 0.33365917 -0.32891557 0.34511834 -0.1570816 -0.08043825 0.14052826 -0.307245 -0.2454344 0.22771947 -0.16343836 -0.0692734 -0.21960104 0.2220633 0.10667574 0.30920485 0.03615623 0.41912562 -0.22152485 -0.6096442 0.035581447 0.067628734 -0.18104148 -0.028582124 -0.09847195 -0.0015915175 -0.10720771 0.6965101 -0.010452433 -0.078928754 0.13957892 0.33885765 -0.091192275 -0.17388159 0.6031021 -0.3536633 0.22739369 0.19564895
volumes 0.09043574 -0.12398434 0.04650745 0.14389634 0.050364006 0.09301038 0.0015075157 0.4730158 -0.09904722 0.042314716 -0.45843446 -0.10730232 0.24646354 0.24141964 -0.32902542 0.3792241 -0.15729934 0.013962629 0.0032469695 -0.30585346 0.018856157 0.19421338 -0.14270943 0.034820825 -0.25936234 0.15717742 0.1772299 0.35053366 0.04049229 0.43809515 -0.24979092 -0.39227697 0.015389261 0.08384433 -0.14051971 0.015592756 -0.021627843 -0.069786966 -0.10908375 0.5819237 0.085963786 0.038118333 0.16039945 0.41077083 -0.10238887 -0.084395155 0.56308925 -0.2961138 0.22648387 0.09798953
models 0.41771442 -0.3513127 0.22589928 -0.12823685 0.11070396 0.1385822 0.26327196 0.8974501 -0.23519465 0.11006097 -0.7854895 0.021963762 0.33047017 0.41977 -0.36552656 -0.15047254 0.006842156 -0.4036924 0.063612826 -0.44689962 0.15677068 0.32207862 -0.451087 0.24516259 -0.22197638 0.3421033 0.1855677 0.23670211 0.047542084 0.29756656 -0.10922364 -0.6052312 0.12804416 0.09315688 -0.30924743 0.15620346 -0.22992116 0.05136166 0.19149017 0.9160835 0.17842597 -0.43590438 0.047602676 0.08329043 -0.010214416 -0.20639443 0.7355079 -0.41615587 0.06259745 0.2970462
entity33 0.09023492 -0.07878862 0.05797127 0.12976417 0.049868952 0.037933435 0.06617964 0.26777384 -0.026464464 0.02111267 -0.26559442 0.0037273995 0.08291271 0.15746462 -0.20536076 0.16651836 -0.050531358 0.0075575523 0.010770688 -0.15720439 0.029806701 0.06343564 -0.009491332 -0.00047065713 -0.16394706 0.074479915 0.08824434 0.22782394 0.055736102 0.2793859 -0.13543613 -0.27649528 0.004582972 0.055745408 -0.084394656 0.00077363185 0.03246195 0.030185046 -0.07879499 0.27284837 0.10942364 0.036210414 0.14033921 0.18598314 -0.051106106 0.0023941651 0.29332444 -0.15045278 0.18750332 0.031243665
heterogeneous 0.30325758 -0.25453836 0.1647063 0.079382844 -0.03182575 -0.059712518 0.079184525 0.38337764 -0.09369299 0.14519218 -0.5600286 -0.02394498 0.34526706 0.28378704 -0.38675943 0.10759978 0.021435149 0.025716355 0.01584508 -0.36805746 0.18728329 0.17952369 -0.20596103 0.22073025 -0.4385479 0.28382742 0.23289256 0.44365185 0.15924416 0.41742718 -0.20617896 -0.5891358 0.040573694 0.13081208 -0.22909257 0.085059404 0.011593246 0.1415183 -0.20940611 0.5346292 0.21918264 -0.057577312 0.28708827 0.077148296 -0.09741156 -0.03321226 0.49904516 -0.34244215 0.43231255 0.06458115
temporal 0.33060238 -0.42294627 0.21997908 -0.24075764 -0.16703142 -0.33216476 -0.3215073 0.6205202 -0.26610535 0.4973935 -0.8274838 -0.21781045 0.4037662 0.31659287 -0.16863917 0.18532154 -0.112222806 -0.4173613 -0.014255606 -0.6903101 0.13141371 0.1903639 -0.66441166 0.14132239 -0.8017235 0.7722975 0.38718858 0.56020397 0.47199908 0.19697835 -0.22824836 -0.8764796 0.57095593 0.18407206 -0.4939457 -0.0021500476 0.087391466 -0.29677218 -0.1444957 0.19124499 0.007102603 -0.19215482 -0.083176434 -0.05418578 -0.29152274 0.18558595 0.9642956 -0.4209478 0.89308304 0.004953403
critical 0.13065186 -0.12284845 -0.024172036 0.16141687 0.07317662 0.12431194 -0.025174767 0.4238295 -0.1826335 -0.024749348 -0.41804966 -0.12913525 0.29641637 0.24870425 -0.30133623 0.4285563 -0.06598668 0.15771942 -0.08286546 -0.31412667 0.13429454 0.12767091 -0.08618217 0.03158312 -0.22583261 0.15736575 0.17058845 0.30624658 0.02112472 0.49896172 -0.31290746 -0.31418112 -0.08705994 0.09792404 -0.07456325 0.046040818 0.044051938 -0.031195225 -0.118676625 0.65370214 0.1469756 0.18507916 0.27693975 0.55323464 -0.17477477 -0.1239341 0.6080348 -0.23566969 0.31789786 0.022705503
comparison 0.31604004 -0.25086963 0.041512463 0.18089756 -0.10151935 0.0804443 0.24231699 0.41707924 -0.16622308 0.008368049 -0.39691383 0.033216946 0.26301453 0.25384194 -0.42706773 0.04907548 0.03200623 -0.043442164 0.19558308 -0.5129891 0.0021541934 0.4311883 -0.2288811 0.1510969 -0.49660298 0.20720498 0.24377796 0.49151304 0.22843486 0.3697849 -0.29453826 -0.73503006 0.07061276 0.07757814 -0.34180385 0.018002968 -0.071986794 0.10893729 -0.119172774 0.5673753 0.114448585 -0.08617405 0.31859595 -0.0011612952 -0.09188922 -0.03932101 0.4264798 -0.31939 0.37031233 0.100714594
entity34 0.06352571 -0.03191344 0.049772892 0.06425607 0.014946094 0.013474092 0.039970122 0.14839907 -0.010557292 0.0096182665 -0.16986184 -0.013062643 0.06569828 0.08946468 -0.13731305 0.10884074 -0.046299636 0.015278753 0.021042692 -0.09924254 -0.004562017 0.04710205 -0.036210664 0.0057071894 -0.09970084 0.04885743 0.038870696 0.13508682 0.028391121 0.16891804 -0.07332258 -0.16078903 0.013685826 0.027699608 -0.074512355 0.009688918 -0.0031899349 0.034650866 -0.046363495 0.19442192 0.05367595 0.002772795 0.064394526 0.10547198 -0.026868187 -0.023950089 0.18009351 -0.106752835 0.12270217 0.032228354
entity35 0.36801705 -0.26648778 0.36326426 0.13157855 0.034491073 -0.26441398 0.19090609 0.40562242 -0.34429714 0.1096508 -0.70741326 0.09893999 0.4918004 0.28459415 -0.5305806 -0.0633397 0.11515547 -0.05904218 0.20280783 -0.32218814 -0.13749233 0.036264613 -0.47058013 0.2605409 -0.56809896 0.5049632 0.08300799 0.19541772 0.009434423 0.5260448 -0.021498282 -0.57686186 0.098081775 -0.14069454 -0.5090778 0.44496095 -0.27051258 0.5121547 -0.2162075 0.72602826 0.13159329 -0.16050097 0.25617793 -0.011881237 -0.1134298 -0.05450239 0.63849574 -0.33251926 0.32427436 0.2662193
entity36 0.022909032 -0.010787653 0.03169134 0.07855346 0.03673551 0.025888756 0.020071398 0.14810877 -0.007567849 0.0009183639 -0.1456115 -0.0019760325 0.070965156 0.09119504 -0.11728048 0.12491392 -0.0653944 0.037023496 -0.007191028 -0.0808285 -0.0014326898 0.02292903 -0.00019572553 -0.018743291 -0.08249536 0.037686087 0.04985395 0.12213277 0.006852234 0.1732664 -0.082262516 -0.13277909 0.003573257 0.008714952 -0.06074768 0.0036455872 0.008923682 0.024830822 -0.043351367 0.16908368 0.051601112 0.03598741 0.07884045 0.15579887 -0.038241733 0.008795933 0.18471165 -0.07839675 0.0955496 0.011340823
entity37 0.250874 -0.045853414 0.1271442 0.17758158 -0.049537566 -0.13498044 -0.18686713 0.33841223 -0.040732924 0.25287828 -0.50133294 -0.25231495 0.56021965 0.17889227 -0.39328718 0.30840075 -0.20431928 0.20171684 -0.15605794 -0.39287034 0.445145 -0.046537276 -0.24844414 0.17893359 -0.3774819 0.3049879 0.28739378 0.47276783 0.09765856 0.3221406 -0.02771933 -0.4404314 0.03841133 0.2096118 -0.3386733 0.06394497 0.16316877 0.08525966 -0.25347766 0.4345255 0.26533782 0.099391 0.20307043 0.31290412 -0.21446939 0.10907307 0.69658214 -0.17721984 0.6274405 -0.030678319
changing 0.29200828 -0.22101726 0.02418754 0.17741327 0.035735343 0.06708925 0.078909 0.48744735 -0.07858927 0.07162319 -0.4510663 0.0041899565 0.21785747 0.3451682 -0.39718112 0.22197032 -0.023122085 0.022072583 0.011528818 -0.3237649 0.060122598 0.20022675 -0.15308337 0.027271982 -0.31318083 0.19382618 0.19774696 0.47077143 0.12762667 0.47732565 -0.25795296 -0.574603 0.050644923 0.09718477 -0.20110652 0.005768331 0.13657436 0.013533625 -0.13666554 0.48611134 0.10455836 -0.014530056 0.24916245 0.23178373 -0.12871884 -0.038084846 0.45496327 -0.22246574 0.37876284 -0.010546007
standards 0.17352718 -0.14135277 0.055469934 0.1553314 0.11133166 0.10639916 0.07127211 0.5045561 -0.08159675 0.06645076 -0.47619054 -0.036429238 0.1958041 0.28993276 -0.31778634 0.23430301 -0.08464089 0.04084891 0.02665212 -0.31066895 0.09066106 0.14619039 -0.06049717 0.03587496 -0.24886622 0.11420527 0.22091089 0.3812721 0.13622932 0.48235884 -0.2578153 -0.52084726 -0.0075670388 0.12383847 -0.13291952 -0.021795196 0.10753917 -0.024042342 -0.13335378 0.5758041 0.19233999 0.011697635 0.23679243 0.31307295 -0.067507505 -0.099965386 0.4543722 -0.25616273 0.2945695 0.08454434
entity38 0.05115338 -0.038962465 0.037985668 0.106082805 0.036454696 0.04342654 0.04293773 0.23350017 -0.020389771 0.02012496 -0.20916125 0.000371946 0.06865845 0.11770115 -0.16078645 0.14654031 -0.057989217 0.013829795 0.0038430234 -0.13486125 0.01045535 0.056560956 -0.008521721 -0.030321993 -0.12848274 0.063996434 0.070800096 0.18497714 0.039782606 0.22598727 -0.10451195 -0.21154815 0.0026082667 0.0248283 -0.0628998 -0.0095845405 0.026454518 0.01468298 -0.072829075 0.23581481 0.07233807 0.034670882 0.08842585 0.1587952 -0.027234621 -0.015403367 0.24054979 -0.1314394 0.15024221 0.017363021
modern 0.26484802 -0.13040031 0.080487356 0.2834155 0.073084295 0.06720632 0.07417496 0.38016614 -0.17531067 0.015559233 -0.4150843 -0.04044645 0.2745629 0.258675 -0.319469 0.26836917 -0.06601763 0.16501458 -0.01870675 -0.3417812 0.12209648 0.0054437537 -0.012657821 -0.05459301 -0.30958426 0.25810957 0.13789971 0.4090393 0.097687334 0.5080302 -0.22787958 -0.5511863 -0.030343276 0.16832688 -0.1466641 -0.005736787 0.17978466 0.1264776 -0.18680573 0.44432423 0.20940717 0.15832199 0.24608628 0.3096726 -0.16580357 -0.031577777 0.4756103 -0.23756333 0.51744235 0.060852174
entity39 0.21123591 -0.19991857 0.11760011 0.12738468 0.042742394 0.016460998 0.0073594805 0.41678756 -0.08438185 0.16260514 -0.52800506 -0.054556116 0.33367285 0.2658571 -0.43361276 0.17911035 -0.070509635 0.051702056 0.0070845904 -0.29744676 0.1658812 0.13464674 -0.108652696 0.15919246 -0.34039667 0.22276457 0.20167617 0.44370592 0.08319091 0.46005452 -0.1489066 -0.48310584 -0.01106381 0.15880816 -0.16765691 0.052214213 0.054542214 0.082245186 -0.13472839 0.52191573 0.23607737 -0.07155597 0.27628285 0.20381084 -0.13157474 0.029811615 0.49370638 -0.26507416 0.36560118 0.07423711
beyond 0.19326943 -0.14899293 0.072082706 0.16356704 0.02089947 0.040002987 0.080768496 0.44709858 -0.09125809 0.071198784 -0.47899133 -0.046308115 0.22304673 0.27503756 -0.2988905 0.24937454 -0.08807638 0.008663187 0.032051377 -0.3558115 0.07218202 0.13908263 -0.09103164 0.019483095 -0.31757104 0.17887038 0.21694298 0.3888971 0.16290511 0.4460389 -0.2661189 -0.520552 0.07384825 0.08144337 -0.20165946 -0.021988936 0.086510934 0.04330628 -0.17549613 0.49342665 0.18039535 0.046232086 0.23638918 0.24535196 -0.08761596 -0.034214795 0.52376384 -0.28380948 0.40965295 0.042043
theory 0.59426343 -0.23467161 0.08958569 0.2197408 0.0546351 0.04207742 0.074991465 0.30737513 -0.38096267 0.24053244 -0.64481544 -0.25519893 0.5042013 0.09901515 -0.3580797 0.061686784 0.021254769 -0.03869542 -0.036110178 -0.5879204 0.18669535 0.13338716 -0.09214603 0.16191041 -0.47975537 0.73233545 0.08441511 0.44559202 0.20637922 0.3218754 -0.34530178 -0.8063154 -0.05588518 0.6452219 -0.21934429 -0.19644046 0.14323257 -0.10202416 -0.14307056 0.3514735 0.27352932 -0.08719724 0.20948897 -0.014350407 -0.47856376 -0.04901509 0.30336046 -0.33224988 0.75264645 0.20529869
its 0.32894695 -0.16368291 0.08965946 0.5172777 0.07528156 -0.15339582 -0.0030309118 0.62149745 -0.068812005 -0.15957156 -0.4899707 -0.09497284 -0.066359416 0.59069973 -0.4454017 0.62846017 -0.43233764 -0.09571826 0.13411419 0.015498607 -0.50195825 -0.09987346 0.14696538 -0.3396497 -0.017088829 0.18734568 -0.31285298 0.41470647 -0.16390653 0.48447815 -0.33085018 -0.8091093 0.036187753 0.09240556 -0.37538683 -0.115254484 0.18180007 0.00040944346 -0.30384803 0.38352403 -0.28513345 0.039760046 -0.053561628 0.44149694 -0.5362116 -0.26096988 0.5334783 -0.06978965 0.35059187 -0.17983718
application 0.5420545 -0.4702021 -0.074344225 0.21762493 -0.15420964 0.0469572 0.07869334 0.7939754 -0.4857113 0.1417955 -0.44675544 -0.222642 0.23718455 -0.027190432 0.023542779 0.18423483 -0.13081568 -0.10469442 0.2547636 -0.8872246 0.09100079 0.31416804 -0.7283785 -0.08415237 -0.35318545 0.42178005 0.14962773 0.4946421 0.6974729 0.3547976 -0.54343534 -0.9336202 0.32476115 -0.04231511 -0.3316644 -0.225487 0.17591156 -0.24754815 -0.22321375 0.20276338 -0.037583157 0.14577451 -0.37482166 -0.08298758 -0.01141064 -0.023612596 0.47789335 -0.46162406 1.0988603 0.051145054
entity40 0.04473042 -0.05075226 0.03601022 0.113413446 0.03256941 0.043832857 0.04113083 0.2130201 -0.015078973 0.020042855 -0.20025381 -0.0074447766 0.08016911 0.120444186 -0.15939179 0.15288146 -0.05989993 0.019925814 0.00024063664 -0.1265129 -0.0056019276 0.049791433 -0.023373922 -0.019207543 -0.13306563 0.06673604 0.054178633 0.17081268 0.028695961 0.21466364 -0.10960357 -0.18966429 -0.0011633374 0.027991751 -0.082313664 -0.0032399867 0.014069465 0.0058754515 -0.059378866 0.22631314 0.069493435 0.0424943 0.0880467 0.16830547 -0.04724096 -0.008264791 0.2290016 -0.12698212 0.13642879 0.02912568
entity41 0.17090532 -0.11217182 0.083349824 0.15318042 0.0022024263 0.05094007 0.12838915 0.3579335 -0.069653526 0.034142222 -0.37498635 -0.030680437 0.20148405 0.20691173 -0.27043775 0.22600476 -0.08637841 0.0058309375 0.07032897 -0.2800018 -0.0011662152 0.1644092 -0.11920832 0.054521285 -0.25155684 0.14954482 0.12354245 0.31759393 0.092531316 0.33648416 -0.20466717 -0.42008778 0.031801034 0.067981765 -0.16656592 -0.0048927004 -0.008709865 0.06994009 -0.14853024 0.43348208 0.08792345 0.02291134 0.1612285 0.19392632 -0.053628936 -0.05486093 0.41760635 -0.2637156 0.28036436 0.087531894
storage 0.06498019 -0.2174994 0.13217267 -0.074073374 -0.028797137 0.07728105 -0.11045422 0.5080282 -0.03809261 0.33251774 -0.7457101 -0.22011374 0.49484783 0.28631762 -0.43000564 0.34528297 -0.2717782 -0.108540565 0.052752797 -0.25818273 0.13869591 0.312772 -0.3351594 0.3944514 -0.3067607 0.23714887 0.31785583 0.46235484 0.050342854 0.3604398 -0.17950465 -0.4007825 0.049343903 0.33934176 -0.045986343 0.014430505 -0.2120869 -0.07157286 -0.18470149 0.63148296 0.013458397 -0.21573317 0.11003818 0.22845602 -0.007998579 -0.15125008 0.65140736 -0.50549996 0.11575087 0.29014927
entity42 0.18594737 -0.15551613 0.07481133 0.21722564 0.015534358 0.07355567 0.07073786 0.42708817 -0.10114715 0.04448551 -0.43733218 -0.02511135 0.23303157 0.2906345 -0.37837735 0.28633642 -0.092191465 0.04738843 0.045118652 -0.28691036 0.016707491 0.14921947 -0.12529819 0.0493961 -0.27958715 0.18406683 0.16898312 0.39437383 0.08036811 0.47116336 -0.22059295 -0.49500778 0.00028860677 0.079059884 -0.18659484 0.046805717 0.033458605 0.08887808 -0.15681039 0.56793416 0.13012761 0.03129961 0.23735909 0.29427963 -0.110923536 -0.05134749 0.54360366 -0.27695128 0.34902143 0.07144931
entity43 0.24390796 -0.1552311 0.09543476 0.18019535 0.029433962 0.026580114 0.010377007 0.4120304 -0.12708412 0.023980819 -0.44072863 -0.025530504 0.29949227 0.24378376 -0.40854758 0.22164576 -0.07978817 0.096455865 0.023058765 -0.31461704 0.09316142 0.08293271 -0.15318719 0.07531935 -0.28024265 0.20380351 0.16019127 0.41198197 0.078437574 0.47782513 -0.1470973 -0.45704773 0.016189316 0.10744273 -0.17947856 0.05955735 0.053815432 0.07967222 -0.15514876 0.5751014 0.18129417 0.022684878 0.24895884 0.23328313 -0.14870664 -0.074132495 0.57829416 -0.2337803 0.40837193 0.040549453
80 0.30597037 -0.19537906 0.07895346 0.14315894 0.041121185 0.051118467 0.0064792437 0.39605236 -0.17168415 0.032175634 -0.43812564 -0.039593194 0.34316987 0.24065435 -0.41083154 0.1640481 -0.060541842 0.10701434 0.055918004 -0.31099638 0.0991688 0.09095036 -0.14562446 0.14974605 -0.25493968 0.19034395 0.18983637 0.42495045 0.030234111 0.47413525 -0.14644632 -0.45013845 -0.016906155 0.08378709 -0.22005333 0.07379159 0.026934773 0.12313897 -0.14946768 0.6394084 0.23317014 -0.030898122 0.3037571 0.2435122 -0.17287074 -0.07523724 0.5938093 -0.25718337 0.42323494 0.052921075
objects 0.27721915 -0.2404029 0.22519338 0.22693992 0.18037927 0.10329347 0.13673815 0.44854763 -0.03686739 0.06359604 -0.66507196 0.04810985 0.10679492 0.44595763 -0.38768488 -0.013658226 0.021276731 -0.4632106 -0.020370048 -0.3903841 -0.16209452 0.49394372 -0.33128312 0.16314538 -0.42563546 0.66308683 -0.013485425 0.25365585 0.0041147564 0.23236403 -0.19888473 -0.81268394 -0.03973402 0.15703268 -0.13259412 0.10828763 -0.38904902 0.044202317 0.2618266 0.8522523 0.15465268 -0.34451288 0.17224656 0.124226466 -0.1028385 -0.22256698 0.6730485 -0.5418129 0.22754052 0.3192794
rules 0.43155938 -0.32214782 0.044002637 -0.24451965 0.038031276 0.068805754 0.04105366 0.6059335 -0.25774217 0.17652756 -0.763025 -0.25005642 0.33341452 0.40352803 -0.1034134 0.20420273 -0.056924246 -0.16855603 0.017974515 -0.32367435 0.1401887 0.20440069 -0.293742 0.13971283 -0.33139518 0.20507553 0.33151805 0.36986327 0.2792739 0.31330743 -0.5022148 -0.74718666 0.27961618 0.24461903 -0.13892405 -0.052144803 0.15934324 -0.2455662 -0.117356524 0.49613914 0.06317528 -0.164692 0.0813489 0.17251839 -0.15735215 -0.1247936 0.5240516 -0.29497722 0.37632033 0.112516396
entity44 0.52554953 -0.40022904 0.098214 0.16575594 0.0066195806 -0.29213285 -0.10690686 0.32910544 -0.13109621 0.20043178 -0.85973835 -0.07353711 0.5540398 0.42585576 -0.5244572 0.12976398 0.17359258 -0.1150167 -0.155168 -0.273309 0.49936348 -0.09639663 -0.27145296 0.2076509 -0.61877495 0.7533812 0.16810016 0.6826598 0.13751099 0.20381947 -0.06130148 -0.84213823 0.13088112 0.36154318 -0.35827652 0.10658017 0.1382364 0.06854146 -0.15220277 0.3803592 0.25442055 0.040775947 0.16902266 -0.11365253 -0.66745096 0.1000821 0.5287442 -0.27227962 0.65917104 -0.054125004
active 0.30983463 -0.3425532 0.20498557 -0.22944811 -0.15792887 -0.23285961 -0.32573783 0.7041994 -0.28992468 0.4965992 -0.8692481 -0.18027689 0.36411098 0.22851114 -0.14848053 0.17495158 0.05234256 -0.2935398 -0.14458904 -0.789366 0.2406645 0.31161729 -0.6481654 0.15421541 -0.9093533 0.66426367 0.28851148 0.6358191 0.41065988 0.3286558 -0.27498576 -0.77839464 0.44308904 0.11726652 -0.3858706 -0.027258715 0.09514611 -0.4068765 -0.02668652 0.14359587 0.13056028 -0.23725235 -0.040726162 -0.095595114 -0.31485814 0.24680115 0.8685523 -0.44330654 0.975536 -0.03491412
features 0.308043 -0.114510536 0.06743595 0.21278349 -0.04828463 0.17701739 0.30495408 0.3955854 -0.19140819 -0.10071856 -0.34496462 0.13532862 0.096296914 0.32494974 -0.23608789 0.11154751 -0.033922095 -0.15220633 0.17594993 -0.4255832 -0.19229412 0.29856887 -0.1988616 -0.19043106 -0.3232945 0.35521725 0.11631189 0.2804495 0.11237203 0.43671906 -0.20504579 -0.7686416 0.08000301 0.13096799 -0.2791009 -0.02318041 -0.19196488 0.07698922 0.007967399 0.7148669 0.13560821 -0.1538357 0.14951192 0.1644654 -0.08522373 -0.23088154 0.61610234 -0.39330953 0.37586325 0.14526185
